{"learner":{"attributes":{"scikit_learn":"{\"_estimator_type\": \"classifier\"}"},"feature_names":["month_of_year","day_of_month","day_of_week","time_of_day","segment_id","vehicle_count","vehicle_type_1","vehicle_type_2","vehicle_type_3","vehicle_speed_1","vehicle_speed_2","vehicle_speed_3","weather_condition","road_condition","segment_accident_count","segment_accident_density"],"feature_types":["int","int","int","int","c","int","int","int","int","float","float","float","int","int","int","float"],"gradient_booster":{"model":{"cats":{"enc":[{"offsets":[],"values":[]},{"offsets":[],"values":[]},{"offsets":[],"values":[]},{"offsets":[],"values":[]},{"type":15,"values":[112038,132938,148050,149405,163556,166613,167136,183667,189814,201639,202664,214576,230889,245051,267753,269396,287330,322086,329258,341292,349565,352572,356787,358607,377932,380746,391369,391704,452944,456699,476417,479201,482554,497887,498591,518801,531071,564656,570405,575763,585100,590785,595948,609231,612340,642717,656116,660086,663054,665427,671412,678856,688508,694731,698782,719176,738551,755674,770487,774079,779514,787277,791798,802729,804314,806073,809570,821590,823378,842225,854639,883300,890170,897549,944962,946335,961722,972064,976638,983794,-1]},{"offsets":[],"values":[]},{"offsets":[],"values":[]},{"offsets":[],"values":[]},{"offsets":[],"values":[]},{"offsets":[],"values":[]},{"offsets":[],"values":[]},{"offsets":[],"values":[]},{"offsets":[],"values":[]},{"offsets":[],"values":[]},{"offsets":[],"values":[]},{"offsets":[],"values":[]}],"feature_segments":[0,0,0,0,0,81,81,81,81,81,81,81,81,81,81,81,81],"sorted_idx":[80,0,1,2,3,4,5,6,7,8,9,10,11,12,13,14,15,16,17,18,19,20,21,22,23,24,25,26,27,28,29,30,31,32,33,34,35,36,37,38,39,40,41,42,43,44,45,46,47,48,49,50,51,52,53,54,55,56,57,58,59,60,61,62,63,64,65,66,67,68,69,70,71,72,73,74,75,76,77,78,79]},"gbtree_model_param":{"num_parallel_tree":"1","num_trees":"300"},"iteration_indptr":[0,1,2,3,4,5,6,7,8,9,10,11,12,13,14,15,16,17,18,19,20,21,22,23,24,25,26,27,28,29,30,31,32,33,34,35,36,37,38,39,40,41,42,43,44,45,46,47,48,49,50,51,52,53,54,55,56,57,58,59,60,61,62,63,64,65,66,67,68,69,70,71,72,73,74,75,76,77,78,79,80,81,82,83,84,85,86,87,88,89,90,91,92,93,94,95,96,97,98,99,100,101,102,103,104,105,106,107,108,109,110,111,112,113,114,115,116,117,118,119,120,121,122,123,124,125,126,127,128,129,130,131,132,133,134,135,136,137,138,139,140,141,142,143,144,145,146,147,148,149,150,151,152,153,154,155,156,157,158,159,160,161,162,163,164,165,166,167,168,169,170,171,172,173,174,175,176,177,178,179,180,181,182,183,184,185,186,187,188,189,190,191,192,193,194,195,196,197,198,199,200,201,202,203,204,205,206,207,208,209,210,211,212,213,214,215,216,217,218,219,220,221,222,223,224,225,226,227,228,229,230,231,232,233,234,235,236,237,238,239,240,241,242,243,244,245,246,247,248,249,250,251,252,253,254,255,256,257,258,259,260,261,262,263,264,265,266,267,268,269,270,271,272,273,274,275,276,277,278,279,280,281,282,283,284,285,286,287,288,289,290,291,292,293,294,295,296,297,298,299,300],"tree_info":[0,0,0,0,0,0,0,0,0,0,0,0,0,0,0,0,0,0,0,0,0,0,0,0,0,0,0,0,0,0,0,0,0,0,0,0,0,0,0,0,0,0,0,0,0,0,0,0,0,0,0,0,0,0,0,0,0,0,0,0,0,0,0,0,0,0,0,0,0,0,0,0,0,0,0,0,0,0,0,0,0,0,0,0,0,0,0,0,0,0,0,0,0,0,0,0,0,0,0,0,0,0,0,0,0,0,0,0,0,0,0,0,0,0,0,0,0,0,0,0,0,0,0,0,0,0,0,0,0,0,0,0,0,0,0,0,0,0,0,0,0,0,0,0,0,0,0,0,0,0,0,0,0,0,0,0,0,0,0,0,0,0,0,0,0,0,0,0,0,0,0,0,0,0,0,0,0,0,0,0,0,0,0,0,0,0,0,0,0,0,0,0,0,0,0,0,0,0,0,0,0,0,0,0,0,0,0,0,0,0,0,0,0,0,0,0,0,0,0,0,0,0,0,0,0,0,0,0,0,0,0,0,0,0,0,0,0,0,0,0,0,0,0,0,0,0,0,0,0,0,0,0,0,0,0,0,0,0,0,0,0,0,0,0,0,0,0,0,0,0,0,0,0,0,0,0,0,0,0,0,0,0,0,0,0,0,0,0,0,0,0,0,0,0,0,0,0,0,0,0],"trees":[{"base_weights":[1.4213105E-2,5.753056E-1,-4.9511346E-1,4.5638758E-1,1.0949136E0,-1.4097129E0,-2.8383356E-1,7.1461916E-1,1.462467E-1,1.3218693E0,-4.464898E-3,-1.5480658E0,-4.1944023E-2,-7.18135E-1,-2.875346E-2,-1.4500506E-2,7.992834E-1,5.101914E-1,-1.0093987E0,3.2632567E-2,1.4769244E0,-3.748491E-2,-9.159988E-2,-1.0809608E0,-5.3958904E-2,1.2149602E0,-2.16096E-1,1.017851E0,4.1111958E-1,-8.388805E-1,8.154843E-1,-8.319989E-2,-7.2371596E-3,4.107406E-2,8.771798E-2,-6.2684894E-1,-1.4084773E0,-3.6590576E-1,2.6625225E-2,8.101071E-2,2.1368079E-2,-4.374202E-1,3.431762E-1,5.8765132E-2,1.6832886E-2,-3.2283828E-2,4.1292515E-2,-7.37499E-2,-0E0,4.8129138E-2,-9.760863E-3,-6.064802E-2,-0E0,-2.6138773E-2,-8.8648535E-2,1.1477717E-2,-5.1287264E-2,-1.0974857E-2,-5.830231E-2,-9.716928E-3,4.4132344E-2],"categories":[0,3,4,5,7,11,13,14,15,16,18,19,20,21,22,23,24,25,26,27,28,29,30,31,32,34,36,37,38,40,41,42,43,44,45,46,51,52,53,56,57,58,59,63,64,66,68,69,70,71,72,73,74,77,79,0,2,3,4,5,6,7,8,11,13,14,15,16,17,18,19,20,21,22,23,24,25,26,27,28,29,30,31,32,34,35,36,37,38,40,41,42,43,44,45,46,48,49,51,52,53,55,56,57,58,59,61,62,63,64,66,68,69,70,71,72,73,74,75,76,77,79,80,0,1,2,3,4,5,6,7,8,9,10,11,12,13,14,15,16,17,18,19,20,21,22,23,24,25,26,27,28,29,30,31,32,33,34,35,36,37,38,39,40,41,42,43,44,45,46,47,48,49,50,0,1,2,3,4,5,6,7,8,9,10,11,12,13,14,15,16,17,18,19,20,21,22,23,24,0,1,2,3,4,5,6,7,8,11,12,13,14,15,16,17,18,19,20,21,22,23,24,25,26,27,28,29,30,31,32,33,34,35,36,37,38,39],"categories_nodes":[0,3,20,24,27],"categories_segments":[0,55,123,174,199],"categories_sizes":[55,68,51,25,38],"default_left":[1,0,0,0,0,0,0,0,0,0,0,0,0,0,0,0,0,0,0,0,1,0,0,0,1,0,0,1,0,0,0,0,0,0,0,0,0,0,0,0,0,0,0,0,0,0,0,0,0,0,0,0,0,0,0,0,0,0,0,0,0],"id":0,"left_children":[1,3,5,7,9,11,13,15,17,19,-1,21,-1,23,25,-1,27,29,31,-1,33,-1,-1,35,37,39,41,43,45,47,49,-1,-1,-1,-1,51,53,55,-1,-1,-1,57,59,-1,-1,-1,-1,-1,-1,-1,-1,-1,-1,-1,-1,-1,-1,-1,-1,-1,-1],"loss_changes":[7.082423E1,6.6358566E0,2.4515245E1,7.649002E0,5.912985E0,3.5964584E-1,1.1735477E1,4.78903E0,1.977305E1,6.746292E-1,0E0,2.450882E0,0E0,9.305548E0,1.611518E1,0E0,3.6145134E0,1.5361384E1,5.9541235E0,0E0,7.694874E-1,0E0,0E0,2.6740742E0,2.9304357E0,1.9894972E0,7.6385384E0,2.7401733E0,9.130036E0,3.769537E0,4.6701603E0,0E0,0E0,0E0,0E0,4.64911E0,3.2856693E0,4.4502444E0,0E0,0E0,0E0,6.569437E0,5.3333693E0,0E0,0E0,0E0,0E0,0E0,0E0,0E0,0E0,0E0,0E0,0E0,0E0,0E0,0E0,0E0,0E0,0E0,0E0],"parents":[2147483647,0,0,1,1,2,2,3,3,4,4,5,5,6,6,7,7,8,8,9,9,11,11,13,13,14,14,16,16,17,17,18,18,20,20,23,23,24,24,25,25,26,26,27,27,28,28,29,29,30,30,35,35,36,36,37,37,41,41,42,42],"right_children":[2,4,6,8,10,12,14,16,18,20,-1,22,-1,24,26,-1,28,30,32,-1,34,-1,-1,36,38,40,42,44,46,48,50,-1,-1,-1,-1,52,54,56,-1,-1,-1,58,60,-1,-1,-1,-1,-1,-1,-1,-1,-1,-1,-1,-1,-1,-1,-1,-1,-1,-1],"split_conditions":[1E-45,7E0,2E0,1E-45,1.1E1,1.1E1,5.6E0,2E0,6E0,1.2E1,-4.464898E-3,2E0,-4.1944023E-2,4E0,1.14E1,-1.4500506E-2,9E0,9E0,3E0,3.2632567E-2,1E-45,-3.748491E-2,-9.159988E-2,1.4E1,1E-45,3E0,4E0,1E-45,1.2E1,4.16E1,6.59E1,-8.319989E-2,-7.2371596E-3,4.107406E-2,8.771798E-2,8E0,2E0,6E0,2.6625225E-2,8.101071E-2,2.1368079E-2,5E0,4E0,5.8765132E-2,1.6832886E-2,-3.2283828E-2,4.1292515E-2,-7.37499E-2,-0E0,4.8129138E-2,-9.760863E-3,-6.064802E-2,-0E0,-2.6138773E-2,-8.8648535E-2,1.1477717E-2,-5.1287264E-2,-1.0974857E-2,-5.830231E-2,-9.716928E-3,4.4132344E-2],"split_indices":[4,8,14,4,0,0,10,0,6,1,0,6,0,12,10,0,0,1,3,0,4,0,0,1,4,3,3,4,1,10,10,0,0,0,0,1,3,0,0,0,0,6,12,0,0,0,0,0,0,0,0,0,0,0,0,0,0,0,0,0,0],"split_type":[1,0,0,1,0,0,0,0,0,0,0,0,0,0,0,0,0,0,0,0,1,0,0,0,1,0,0,1,0,0,0,0,0,0,0,0,0,0,0,0,0,0,0,0,0,0,0,0,0,0,0,0,0,0,0,0,0,0,0,0,0],"sum_hessian":[2.4580359E2,1.1699E2,1.288136E2,9.68871E1,2.01029E1,2.30196E1,1.05794E2,5.19803E1,4.49068E1,1.68431E1,3.2598E0,1.70098E1,6.0098E0,3.83284E1,6.74656E1,3.7598E0,4.8220497E1,3.4642097E1,1.02647E1,4.2696E0,1.25735E1,5.5098E0,1.15E1,2.42843E1,1.40441E1,8.0441E0,5.94215E1,2.9647E1,1.85735E1,6.0098E0,2.86323E1,5.25E0,5.0147E0,5.0245E0,7.549E0,1.15245E1,1.27598E1,9.5245E0,4.5196E0,4.5294E0,3.5147E0,4.28578E1,1.65637E1,2.33725E1,6.2745E0,5.0098E0,1.35637E1,3E0,3.0098E0,2.51225E1,3.5098E0,5.5049E0,6.0196E0,4.5098E0,8.25E0,5.2696E0,4.2549E0,3.4098E1,8.7598E0,8.5245E0,8.0392E0],"tree_param":{"num_deleted":"0","num_feature":"16","num_nodes":"61","size_leaf_vector":"1"}},{"base_weights":[-1.4253675E-2,-7.3096865E-1,4.5825592E-1,-8.843328E-2,-5.685834E-1,-6.545017E-2,7.0750546E-1,-8.2239294E-1,-4.959125E-2,-2.9746947E-1,5.217587E-1,1.1492655E0,4.2818928E-1,5.673217E-2,-9.862147E-1,-4.7052616E-1,4.8234507E-2,4.1672552E-1,-5.9421974E-1,-1.1862803E-2,1.0292131E0,1.3615E0,4.6348846E-1,4.5511786E-2,1.0210608E0,-3.921635E-2,3.0579468E-2,-1.3021078E0,-6.0498536E-1,2.5888324E-1,-8.169097E-1,8.537564E-1,-1.4767054E-2,-1.883832E-1,-8.334943E-2,2.0402133E-2,6.8126455E-2,2.8851105E-2,1.523081E0,4.172806E-2,-9.782207E-3,-2.2939265E-1,8.7434024E-1,1.2158437E0,3.229575E-3,-7.920616E-2,-2.7609596E-3,1.5479645E-3,-7.2897024E-2,2.9350443E-2,-5.3524063E-3,-6.153859E-2,1.4478167E-2,5.297142E-4,7.286653E-2,-3.3773966E-2,1.7839035E-2,4.189854E-2,8.577425E-2,4.3559656E-2,-3.3743527E-2,1.40828835E-2,5.8447726E-2,7.239598E-2,3.8947824E-2],"categories":[0,1,2,3,4,5,6,7,8,9,10,11,12,13,14,15,16,18,19,20,21,22,23,24,25,26,27,28,29,30,31,32,33,34,35,36,37,38,39,40,41,42,43,44,45,46,47,48,49,50,51,52,53,54,55,56,57,58,59,60,61,62,63,64,65,67,68,69,70,71,72,73,74,75,76,77,78,79,80,0,1,2,3,4,5,6,7,8,9,10,11,12,13,14,15,16,17,18,19,20,21,22,23,24,25,26,27,28,29,30,31,32,33,34,35,36,37,38,39,40,41,42,43,44,45,46,47,48,49,50,51,52,53,54,55,56,57,58,59,60,61,62,0,1,2,3,4,5,6,7,8,9,10,11,12,13,14,15,16,17,18,19,20,21,22,23,24,25,26,27,28,29,30,31,32,33,34,35,36,37,38,39,40,41,42,43,44,45,46,47,48,49,50,51,52,53,54,55,56,57,58,0,1,2,3,4,5,6,7,8,9,10,11,12,13,14,15,16,17,18,19,20,21,22,23,24,25,26,0,1,2,3,4,6,7,8,9,10,11,12,13,14,15,16,17,18,19,20,21,22,23,24,25,26,27,28,29,30,31,32,33,34,35,36,37,38,39,40,41,42,43,44,45,46,47,48,49,50,51,52,53,54,55,56,57,58,59,60,61,62,63,64,65,66,67,68,69,70,71,72,73,74,76,77,78],"categories_nodes":[7,9,15,30,41],"categories_segments":[0,79,142,201,228],"categories_sizes":[79,63,59,27,77],"default_left":[0,0,0,0,0,0,0,0,0,1,0,0,0,0,0,1,0,0,0,0,0,0,0,0,0,0,0,0,0,0,1,0,0,0,0,0,0,0,0,0,0,0,0,0,0,0,0,0,0,0,0,0,0,0,0,0,0,0,0,0,0,0,0,0,0],"id":1,"left_children":[1,3,5,-1,7,9,11,13,15,17,19,21,23,25,27,29,-1,31,33,-1,35,37,39,41,43,-1,-1,45,47,49,51,53,-1,55,-1,-1,-1,-1,57,-1,-1,59,61,63,-1,-1,-1,-1,-1,-1,-1,-1,-1,-1,-1,-1,-1,-1,-1,-1,-1,-1,-1,-1,-1],"loss_changes":[8.210608E1,1.50005E1,1.9168793E1,0E0,1.10543785E1,6.654292E0,1.1582676E1,8.331711E0,1.28176775E1,7.6977835E0,5.6377587E0,4.669018E0,1.4019398E1,5.023784E0,4.8072395E0,5.6460524E0,0E0,3.6635735E0,1.050915E1,0E0,1.0342007E0,2.4779282E0,2.8026888E0,9.176808E0,4.3308296E0,0E0,0E0,8.631603E0,1.3087629E1,1.0138929E0,7.213147E0,3.4133396E0,0E0,5.4618454E0,0E0,0E0,0E0,0E0,1.2884979E0,0E0,0E0,1.5312428E1,1.2788267E0,6.8652153E-1,0E0,0E0,0E0,0E0,0E0,0E0,0E0,0E0,0E0,0E0,0E0,0E0,0E0,0E0,0E0,0E0,0E0,0E0,0E0,0E0,0E0],"parents":[2147483647,0,0,1,1,2,2,4,4,5,5,6,6,7,7,8,8,9,9,10,10,11,11,12,12,13,13,14,14,15,15,17,17,18,18,20,20,21,21,22,22,23,23,24,24,27,27,28,28,29,29,30,30,31,31,33,33,38,38,41,41,42,42,43,43],"right_children":[2,4,6,-1,8,10,12,14,16,18,20,22,24,26,28,30,-1,32,34,-1,36,38,40,42,44,-1,-1,46,48,50,52,54,-1,56,-1,-1,-1,-1,58,-1,-1,60,62,64,-1,-1,-1,-1,-1,-1,-1,-1,-1,-1,-1,-1,-1,-1,-1,-1,-1,-1,-1,-1,-1],"split_conditions":[2.308E-1,7.69E-2,5.6E0,-8.843328E-2,4E0,5E0,3.1E1,1E-45,6.49E1,1E-45,7E0,6E0,3.889E-1,4.48E1,4E0,1E-45,4.8234507E-2,7E0,7E0,-1.1862803E-2,6E0,3E1,4E0,7E0,6.59E1,-3.921635E-2,3.0579468E-2,2.4E1,1.9E1,1.765E-1,1E-45,3.125E-1,-1.4767054E-2,5E0,-8.334943E-2,2.0402133E-2,6.8126455E-2,2.8851105E-2,3E0,4.172806E-2,-9.782207E-3,1E-45,2.2E1,3E0,3.229575E-3,-7.920616E-2,-2.7609596E-3,1.5479645E-3,-7.2897024E-2,2.9350443E-2,-5.3524063E-3,-6.153859E-2,1.4478167E-2,5.297142E-4,7.286653E-2,-3.3773966E-2,1.7839035E-2,4.189854E-2,8.577425E-2,4.3559656E-2,-3.3743527E-2,1.40828835E-2,5.8447726E-2,7.239598E-2,3.8947824E-2],"split_indices":[15,15,10,0,12,12,9,4,9,4,0,6,15,10,6,4,0,0,6,0,12,10,12,8,10,0,0,1,1,15,4,15,0,6,0,0,0,0,12,0,0,4,11,12,0,0,0,0,0,0,0,0,0,0,0,0,0,0,0,0,0,0,0,0,0],"split_type":[0,0,0,0,0,0,0,1,0,1,0,0,0,0,0,1,0,0,0,0,0,0,0,0,0,0,0,0,0,0,1,0,0,0,0,0,0,0,0,0,0,1,0,0,0,0,0,0,0,0,0,0,0,0,0,0,0,0,0,0,0,0,0,0,0],"sum_hessian":[2.4037814E2,9.537519E1,1.4500296E2,1.1483582E1,8.389161E1,4.6866497E1,9.813646E1,5.581728E1,2.807433E1,3.406885E1,1.27976465E1,3.666901E1,6.1467445E1,8.774345E0,4.7042934E1,2.0288946E1,7.785384E0,9.782889E0,2.4285961E1,5.262205E0,7.5354414E0,2.7138897E1,9.530113E0,3.811257E1,2.3354876E1,3.251655E0,5.52269E0,2.4261547E1,2.278139E1,6.5210104E0,1.3767936E1,6.025928E0,3.7569613E0,1.8540697E1,5.7452645E0,3.5129273E0,4.0225143E0,5.521572E0,2.1617327E1,6.024216E0,3.505897E0,2.907245E1,9.040121E0,1.9091253E1,4.2636223E0,1.9500383E1,4.7611628E0,1.3535833E1,9.245555E0,3.2636583E0,3.257352E0,1.0004078E1,3.7638578E0,3.0076404E0,3.0182874E0,9.7624655E0,8.778231E0,6.027977E0,1.5589349E1,8.036809E0,2.1035643E1,3.7638144E0,5.276307E0,1.080731E1,8.283942E0],"tree_param":{"num_deleted":"0","num_feature":"16","num_nodes":"65","size_leaf_vector":"1"}},{"base_weights":[2.173159E-2,-6.1637336E-1,4.4045463E-1,-1.2070876E0,-4.0043917E-1,1.16069205E-1,8.083456E-1,-8.532434E-2,-7.2109157E-1,-7.06102E-1,1.7981632E-1,2.2843523E-1,-4.737201E-1,3.788592E-1,1.0025531E0,2.5903521E-2,-1.1631571E0,-1.2593719E0,-4.009871E-1,5.176552E-1,-3.9395235E-2,4.041657E-1,-2.1666966E-1,-7.503842E-2,1.1402969E-2,6.0188517E-2,6.338287E-2,1.4149415E0,7.750118E-1,-8.108773E-2,-3.1927635E-4,-1.5136341E0,-2.044486E-2,-5.918736E-1,3.4043986E-2,1.19854696E-1,1.0176889E0,-3.2047454E-2,5.3870213E-1,-1.0410887E0,3.9258915E-1,-3.612259E-2,2.2949487E-2,-2.924666E-1,4.4702027E-2,8.309239E-2,2.1715079E-2,5.004537E-1,1.152899E0,-8.473579E-2,-3.465741E-2,-7.596709E-3,-6.0660448E-2,-3.6071077E-2,2.4024324E-2,7.162373E-2,2.5653383E-2,8.19154E-3,4.484839E-2,-7.82881E-2,-8.849956E-3,5.1572658E-2,-5.7862233E-3,-3.8275596E-2,2.5769128E-2,-3.1415075E-2,4.4015553E-2,2.6189333E-2,6.512924E-2],"categories":[],"categories_nodes":[],"categories_segments":[],"categories_sizes":[],"default_left":[0,0,0,0,0,0,0,0,0,0,0,0,0,0,0,0,0,0,0,0,0,0,0,0,0,0,0,0,0,0,0,0,0,0,0,0,0,0,0,0,0,0,0,0,0,0,0,0,0,0,0,0,0,0,0,0,0,0,0,0,0,0,0,0,0,0,0,0,0],"id":2,"left_children":[1,3,5,7,9,11,13,-1,15,17,19,21,23,25,27,-1,29,31,33,35,-1,37,39,-1,41,43,-1,45,47,-1,-1,49,-1,51,-1,53,55,-1,57,59,61,-1,-1,63,-1,-1,-1,65,67,-1,-1,-1,-1,-1,-1,-1,-1,-1,-1,-1,-1,-1,-1,-1,-1,-1,-1,-1,-1],"loss_changes":[6.560398E1,1.1757828E1,1.751826E1,4.6931076E0,1.3095331E1,5.3955116E0,5.254307E0,0E0,8.724822E0,7.4339104E0,8.818723E0,5.4362817E0,6.648005E0,6.3950033E0,3.0840988E0,0E0,5.7733145E0,2.7530231E0,7.111907E0,3.704877E0,0E0,7.2759495E0,1.0407675E1,0E0,3.511805E0,5.701715E0,0E0,2.7742596E0,2.6382256E0,0E0,0E0,4.0332222E-1,0E0,7.4052258E0,0E0,4.047596E0,8.564358E-1,0E0,5.7049923E0,3.5148077E0,4.1174116E0,0E0,0E0,5.5889034E0,0E0,0E0,0E0,9.493134E0,3.3960533E-1,0E0,0E0,0E0,0E0,0E0,0E0,0E0,0E0,0E0,0E0,0E0,0E0,0E0,0E0,0E0,0E0,0E0,0E0,0E0,0E0],"parents":[2147483647,0,0,1,1,2,2,3,3,4,4,5,5,6,6,8,8,9,9,10,10,11,11,12,12,13,13,14,14,16,16,17,17,18,18,19,19,21,21,22,22,24,24,25,25,27,27,28,28,31,31,33,33,35,35,36,36,38,38,39,39,40,40,43,43,47,47,48,48],"right_children":[2,4,6,8,10,12,14,-1,16,18,20,22,24,26,28,-1,30,32,34,36,-1,38,40,-1,42,44,-1,46,48,-1,-1,50,-1,52,-1,54,56,-1,58,60,62,-1,-1,64,-1,-1,-1,66,68,-1,-1,-1,-1,-1,-1,-1,-1,-1,-1,-1,-1,-1,-1,-1,-1,-1,-1,-1,-1],"split_conditions":[2.308E-1,2E0,3.79E1,4E0,4E0,2.18E1,2E0,-8.532434E-2,5E0,3E0,6E0,2E1,2.48E1,4E-1,5E0,2.5903521E-2,1.111E-1,6.22E1,5.47E1,4E0,-3.9395235E-2,3E0,8E0,-7.503842E-2,1.6E1,3.53E1,6.338287E-2,6.84E1,1.1E1,-8.108773E-2,-3.1927635E-4,1.9E1,-2.044486E-2,1.9E1,3.4043986E-2,6E0,1E1,-3.2047454E-2,3E0,3.158E-1,3E0,-3.612259E-2,2.2949487E-2,2E1,4.4702027E-2,8.309239E-2,2.1715079E-2,4E0,1.5E1,-8.473579E-2,-3.465741E-2,-7.596709E-3,-6.0660448E-2,-3.6071077E-2,2.4024324E-2,7.162373E-2,2.5653383E-2,8.19154E-3,4.484839E-2,-7.82881E-2,-8.849956E-3,5.1572658E-2,-5.7862233E-3,-3.8275596E-2,2.5769128E-2,-3.1415075E-2,4.4015553E-2,2.6189333E-2,6.512924E-2],"split_indices":[15,14,10,6,12,10,12,0,6,6,6,1,10,15,0,0,15,10,10,6,0,1,0,0,1,11,0,10,0,0,0,1,0,1,0,12,1,0,3,15,6,0,0,1,0,0,0,12,1,0,0,0,0,0,0,0,0,0,0,0,0,0,0,0,0,0,0,0,0],"split_type":[0,0,0,0,0,0,0,0,0,0,0,0,0,0,0,0,0,0,0,0,0,0,0,0,0,0,0,0,0,0,0,0,0,0,0,0,0,0,0,0,0,0,0,0,0,0,0,0,0,0,0,0,0,0,0,0,0,0,0,0,0,0,0,0,0,0,0,0,0],"sum_hessian":[2.4358353E2,9.622794E1,1.4735558E2,2.4406853E1,7.182109E1,7.915154E1,6.820403E1,1.0697374E1,1.3709477E1,4.7011936E1,2.4809155E1,6.714197E1,1.200958E1,2.231672E1,4.5887314E1,3.5001109E0,1.0209367E1,1.5482319E1,3.1529615E1,1.881063E1,5.998523E0,4.8364124E1,1.8777842E1,3.2473035E0,8.762277E0,1.7295723E1,5.020997E0,1.430448E1,3.1582834E1,6.96121E0,3.248157E0,1.1228159E1,4.25416E0,2.7264387E1,4.265229E0,1.1278071E1,7.5325603E0,5.0017543E0,4.336237E1,7.748419E0,1.1029424E1,3.0022762E0,5.76E0,1.252707E1,4.768652E0,1.0790905E1,3.5135744E0,1.9791838E1,1.1790996E1,8.225422E0,3.002737E0,1.6785093E1,1.0479293E1,3.0005968E0,8.277474E0,3.0163324E0,4.516228E0,2.2038641E1,2.1323729E1,4.2438173E0,3.5046015E0,4.518277E0,6.511146E0,8.01184E0,4.5152307E0,4.7524667E0,1.50393715E1,3.2594037E0,8.531591E0],"tree_param":{"num_deleted":"0","num_feature":"16","num_nodes":"69","size_leaf_vector":"1"}},{"base_weights":[-5.9641073E-3,-8.0185866E-1,2.890596E-1,2.659134E-2,-8.836428E-1,-5.3490665E-2,6.664983E-1,-1.2433131E0,-5.771116E-1,-2.3639832E-1,6.915996E-1,-1.1894339E-1,8.0651313E-1,-7.88658E-3,-1.3947473E0,-8.5824627E-1,1.7805462E-1,1.2001423E-1,-6.945839E-1,1.0199952E0,-9.419877E-3,-3.8631152E-2,4.1737846E-1,7.16053E-1,1.3561656E0,-1.5597458E0,-3.78779E-2,-5.8362514E-1,-7.966134E-2,3.5162017E-2,-2.1782558E-2,-5.4043997E-2,2.9909363E-1,-4.74238E-1,-8.051138E-2,6.4588E-2,1.8789556E-2,-9.066313E-3,4.580378E-2,8.846445E-1,3.388631E-1,3.2580953E-2,7.871165E-2,-8.457163E-2,-3.93561E-2,-5.9961446E-2,-1.2358133E-2,-1.4489467E-2,2.6780967E-2,-7.0073283E-3,-5.6371864E-2,6.7551136E-2,2.639317E-2,-2.7847156E-2,3.7454586E-2],"categories":[],"categories_nodes":[],"categories_segments":[],"categories_sizes":[],"default_left":[0,0,0,0,0,0,0,0,0,0,0,0,0,0,0,0,0,0,0,0,0,0,0,0,0,0,0,0,0,0,0,0,0,0,0,0,0,0,0,0,0,0,0,0,0,0,0,0,0,0,0,0,0,0,0],"id":3,"left_children":[1,3,5,-1,7,9,11,13,15,17,19,21,23,-1,25,27,29,31,33,35,-1,-1,37,39,41,43,-1,45,-1,-1,-1,-1,47,49,-1,-1,-1,-1,-1,51,53,-1,-1,-1,-1,-1,-1,-1,-1,-1,-1,-1,-1,-1,-1],"loss_changes":[5.918875E1,7.944031E0,2.3843624E1,0E0,6.234295E0,1.3347001E1,9.798027E0,4.352085E0,8.065462E0,1.3007627E1,5.8468533E0,5.271836E0,2.5299683E0,0E0,1.2179489E0,4.341406E0,3.799807E0,9.93278E0,6.0377445E0,1.8476171E0,0E0,0E0,2.7071238E0,3.7949677E0,1.7504883E-1,3.3465576E-1,0E0,4.0068846E0,0E0,0E0,0E0,0E0,5.7592134E0,6.1551456E0,0E0,0E0,0E0,0E0,0E0,6.591202E0,8.627309E0,0E0,0E0,0E0,0E0,0E0,0E0,0E0,0E0,0E0,0E0,0E0,0E0,0E0,0E0],"parents":[2147483647,0,0,1,1,2,2,4,4,5,5,6,6,7,7,8,8,9,9,10,10,11,11,12,12,14,14,15,15,16,16,17,17,18,18,19,19,22,22,23,23,24,24,25,25,27,27,32,32,33,33,39,39,40,40],"right_children":[2,4,6,-1,8,10,12,14,16,18,20,22,24,-1,26,28,30,32,34,36,-1,-1,38,40,42,44,-1,46,-1,-1,-1,-1,48,50,-1,-1,-1,-1,-1,52,54,-1,-1,-1,-1,-1,-1,-1,-1,-1,-1,-1,-1,-1,-1],"split_conditions":[1.875E-1,7.6E0,3.42E1,2.659134E-2,1.538E-1,4E-1,2.308E-1,1.61E1,6.91E1,4.05E1,4E0,3E0,5E-1,-7.88658E-3,1.1E1,2.1E1,1.5E1,1.04E1,6E0,5E-1,-9.419877E-3,-3.8631152E-2,7E0,6.59E1,6E0,4E0,-3.78779E-2,3.3E0,-7.966134E-2,3.5162017E-2,-2.1782558E-2,-5.4043997E-2,6E0,8E0,-8.051138E-2,6.4588E-2,1.8789556E-2,-9.066313E-3,4.580378E-2,6E0,7.97E1,3.2580953E-2,7.871165E-2,-8.457163E-2,-3.93561E-2,-5.9961446E-2,-1.2358133E-2,-1.4489467E-2,2.6780967E-2,-7.0073283E-3,-5.6371864E-2,6.7551136E-2,2.639317E-2,-2.7847156E-2,3.7454586E-2],"split_indices":[15,9,10,0,15,15,15,9,9,9,13,3,15,0,0,1,1,9,14,15,0,0,7,10,7,3,0,10,0,0,0,0,0,0,0,0,0,0,0,0,10,0,0,0,0,0,0,0,0,0,0,0,0,0,0],"split_type":[0,0,0,0,0,0,0,0,0,0,0,0,0,0,0,0,0,0,0,0,0,0,0,0,0,0,0,0,0,0,0,0,0,0,0,0,0,0,0,0,0,0,0,0,0,0,0,0,0,0,0,0,0,0,0],"sum_hessian":[2.4986772E2,6.720033E1,1.8266739E2,3.4941607E0,6.370617E1,9.607048E1,8.659691E1,2.7756086E1,3.5950085E1,7.7790985E1,1.8279497E1,1.3016196E1,7.358071E1,3.7286408E0,2.4027447E1,2.619433E1,9.755753E0,4.4047337E1,3.374365E1,1.3278718E1,5.0007787E0,5.751732E0,7.264465E0,6.531589E1,8.264819E0,1.7810635E1,6.216811E0,2.047434E1,5.7199903E0,5.266197E0,4.4895554E0,4.9900737E0,3.9057262E1,2.850998E1,5.2336674E0,8.522832E0,4.7558856E0,3.4993005E0,3.7651641E0,4.4026855E1,2.1289036E1,3.0044775E0,5.2603416E0,1.4090416E1,3.7202191E0,6.2244415E0,1.4249899E1,1.1006405E1,2.8050858E1,1.9767271E1,8.742709E0,1.7753199E1,2.6273657E1,6.4980316E0,1.4791003E1],"tree_param":{"num_deleted":"0","num_feature":"16","num_nodes":"55","size_leaf_vector":"1"}},{"base_weights":[3.8072105E-2,6.5805715E-1,-4.1238368E-1,3.622937E-1,9.5843595E-1,-9.4745874E-1,-1.7964748E-1,-4.7344285E-1,5.289319E-1,1.3610154E0,6.861602E-1,-1.129047E0,9.881585E-3,-2.5281188E-1,5.9393544E-2,1.001908E-2,-5.097669E-2,6.636232E-1,-4.2066757E-2,2.4986235E-2,7.903574E-2,2.576252E-1,1.0406207E0,-1.5434076E0,-6.535271E-1,-3.3187535E-1,5.481749E-1,4.4556877E-1,6.9343664E-2,6.421304E-2,-1.7488617E-1,1.2634437E0,1.7596459E-2,-3.6192514E-2,-8.358424E-2,1.651751E-2,-1.0488005E0,-3.8451455E-3,-6.076158E-1,-9.248632E-3,5.33037E-2,3.0154977E-2,-3.926138E-2,-4.873195E-2,1.4000038E-2,3.8402926E-2,7.717508E-2,-6.640785E-2,-1.2476283E-2,-1.6893685E-2,3.3993766E-2,-5.4754693E-2,-5.6299954E-3],"categories":[0,1,3,4,7,8,11,13,14,15,16,18,19,20,21,22,23,24,25,26,27,28,29,30,31,32,34,36,37,38,40,41,42,43,44,45,46,51,52,53,56,57,58,59,61,62,63,64,66,68,69,70,71,73,74,75,77,79,0,1,2,3,4,5,6,7,8,9,10,11,12,13,14,15,16,17,18,19,20,21,22,23,24,25,26,27,28,29,30,31,32,33,34,35,36,37,38,39,40,41,42,43,44,45,46,47,0,1,2,3,4,5,6,7,8,9,10,11,12,13,14,15,16,17,18,19,20,21,22,23,24,25,26,27,28,29,30,31,32,33,34,35,36],"categories_nodes":[0,30,36],"categories_segments":[0,58,106],"categories_sizes":[58,48,37],"default_left":[1,0,0,0,0,0,0,0,0,0,0,0,0,0,0,0,0,0,0,0,0,0,0,0,0,0,0,0,0,0,1,0,0,0,0,0,1,0,0,0,0,0,0,0,0,0,0,0,0,0,0,0,0],"id":4,"left_children":[1,3,5,7,9,11,13,15,17,19,21,23,-1,25,-1,-1,-1,27,-1,-1,-1,29,31,33,35,37,39,41,-1,-1,43,45,-1,-1,-1,-1,47,49,51,-1,-1,-1,-1,-1,-1,-1,-1,-1,-1,-1,-1,-1,-1],"loss_changes":[6.943813E1,8.818996E0,1.7638945E1,7.8475804E0,4.4681473E0,9.311256E0,1.0377839E1,3.7782886E0,9.034448E0,2.6866531E0,4.5658875E0,6.1727333E0,0E0,6.3277135E0,0E0,0E0,0E0,5.9058456E0,0E0,0E0,0E0,7.5511227E0,2.068285E0,5.715332E-1,7.9384794E0,8.020549E0,3.7074022E0,7.0972133E0,0E0,0E0,4.797059E0,3.414135E-1,0E0,0E0,0E0,0E0,2.660653E0,9.785071E0,1.1431778E1,0E0,0E0,0E0,0E0,0E0,0E0,0E0,0E0,0E0,0E0,0E0,0E0,0E0,0E0],"parents":[2147483647,0,0,1,1,2,2,3,3,4,4,5,5,6,6,7,7,8,8,9,9,10,10,11,11,13,13,17,17,21,21,22,22,23,23,24,24,25,25,26,26,27,27,30,30,31,31,36,36,37,37,38,38],"right_children":[2,4,6,8,10,12,14,16,18,20,22,24,-1,26,-1,-1,-1,28,-1,-1,-1,30,32,34,36,38,40,42,-1,-1,44,46,-1,-1,-1,-1,48,50,52,-1,-1,-1,-1,-1,-1,-1,-1,-1,-1,-1,-1,-1,-1],"split_conditions":[1E-45,3.83E1,1.667E-1,2.941E-1,2E0,8E0,9.67E1,5E0,8.18E1,3E0,3.636E-1,4E0,9.881585E-3,9.18E1,5.9393544E-2,1.001908E-2,-5.097669E-2,5.99E1,-4.2066757E-2,2.4986235E-2,7.903574E-2,2E0,6.59E1,1.87E1,5E0,3.48E1,3E0,5.31E1,6.9343664E-2,6.421304E-2,1E-45,4E0,1.7596459E-2,-3.6192514E-2,-8.358424E-2,1.651751E-2,1E-45,2.76E1,3E0,-9.248632E-3,5.33037E-2,3.0154977E-2,-3.926138E-2,-4.873195E-2,1.4000038E-2,3.8402926E-2,7.717508E-2,-6.640785E-2,-1.2476283E-2,-1.6893685E-2,3.3993766E-2,-5.4754693E-2,-5.6299954E-3],"split_indices":[4,10,15,15,6,8,10,6,9,12,15,6,0,9,0,0,0,9,0,0,0,3,10,9,6,9,3,9,0,0,4,13,0,0,0,0,4,9,12,0,0,0,0,0,0,0,0,0,0,0,0,0,0],"split_type":[1,0,0,0,0,0,0,0,0,0,0,0,0,0,0,0,0,0,0,0,0,0,0,0,0,0,0,0,0,0,1,0,0,0,0,0,1,0,0,0,0,0,0,0,0,0,0,0,0,0,0,0,0],"sum_hessian":[2.4657669E2,1.0366223E2,1.4291446E2,5.3511738E1,5.0150497E1,4.2258617E1,1.0065583E2,8.490132E0,4.5021603E1,1.8472147E1,3.167835E1,3.6561966E1,5.696652E0,9.638722E1,4.268613E0,4.0019937E0,4.488139E0,4.1528233E1,3.49337E0,4.5122914E0,1.3959856E1,1.5250163E1,1.6428186E1,1.8224983E1,1.8336983E1,8.83745E1,8.012722E0,3.3256096E1,8.272137E0,4.0051613E0,1.1245002E1,1.1672002E1,4.756185E0,3.4710486E0,1.4753935E1,5.230063E0,1.310692E1,4.0989094E1,4.7385406E1,3.5032325E0,4.5094895E0,3.0006746E1,3.249351E0,3.7424705E0,7.502531E0,5.6960373E0,5.975965E0,9.129299E0,3.977621E0,2.797441E1,1.3014683E1,2.3161926E1,2.422348E1],"tree_param":{"num_deleted":"0","num_feature":"16","num_nodes":"53","size_leaf_vector":"1"}},{"base_weights":[8.69143E-2,6.3484955E-1,-3.9015865E-1,9.469584E-1,3.5349387E-1,-9.260681E-1,-1.904686E-1,-1.5814679E-2,1.0451782E0,1.0517287E0,3.543472E-2,-0E0,-1.3187537E0,-3.1917024E-1,4.895331E-1,5.498877E-1,1.200656E0,1.177051E0,1.650627E-2,1.7570461E-1,-5.3233363E-2,-4.5644302E-2,6.215412E-1,-1.4483376E0,-3.5880353E-2,-7.637581E-2,-9.9859506E-1,-3.6563702E-2,8.7879586E-1,1.0277147E0,-1.1450118E-2,1.495996E-2,6.569859E-2,6.970708E-2,7.541086E-1,-1.0393767E-1,8.78914E-1,5.650283E-2,-2.082383E-3,-3.4168344E-2,-7.735175E-2,-4.296066E-1,5.7849395E-1,-1.3485566E0,-1.00671366E-1,1.212631E0,-3.5415296E-3,6.844186E-2,1.708945E-2,1.0792008E-2,5.772334E-2,1.0131116E-2,-5.0279435E-2,-2.5672147E-3,6.2095374E-2,2.5344828E-2,-3.3987433E-2,-4.0371913E-2,4.3617453E-2,-8.168514E-2,-3.9165065E-2,2.7437642E-2,-3.7628904E-2,2.6524812E-2,7.2743386E-2],"categories":[0,1,3,4,7,8,11,14,15,16,18,19,20,21,23,24,25,26,27,28,29,30,31,32,34,36,37,38,40,41,42,43,44,45,46,51,52,53,55,56,57,58,59,61,63,64,66,68,69,70,71,72,73,74,77,79,0,1,3,4,5,6,7,8,9,10,11,12,13,14,15,16,17,18,19,20,21,22,23,24,25,26,27,28,29,30,31,32,34,36,37,38,39,40,41,42,43,44,45,46,47,48,49,51,52,53,55,56,57,58,59,60,61,62,63,64,65,66,67,68,69,70,71,72,73,74,75,76,77,78,79,80,0,1,2,3,4,5,6,7,8,9,10,11,12,13,14,15,16,0,1,2,3,4,5,6,7,8,9,10,11,12,13,14,15,16,17,18,19,20,21,22,23,24,25,26,27,28,29,30,31,32,33,34,35,36,37,38,39,40,41,42,43,44,45,46,47,48,49,50,51,52,53,54,0,1,2,3,4,5,6,7,8,9,10,11,12,13,14,15,16,17,18,19,20,21,22,23,24,25,26,27,28,29,30,31,32,33,34,35,36,37,38,39,40,41,42,43,44,45,46,47,48,49,50,51,52,53,54,55,56,57,58,59,60,61,62,63,64,65,66,67,68,69,70,71,72,73,74,75,0,1,2,3,4,5,6,7,8,9,10,11,12,13,14,15,16,17,18,19,20,21,22,23,24,25,26,27,28,29,30,31,32,33,34,35,36,37,38,39,40,41,42,43,44,45,46,47,48,49,50,51,52,53,54,55,56,57,58,59,60,61,0,1,2,3,4,5,6,7,8,9,10,11,12,13,14,15,16,17,18,19,20,21,22,23,24,25,26,27,28,29,0,1,2,3,4,5,6,7,8,9,10,11,12,13,14,15,16,17,18,19,20,21,22,23,24,25,26,27,28,29,30,31,32,33,34,35,36],"categories_nodes":[0,4,12,15,16,23,25,44],"categories_segments":[0,56,132,149,204,280,342,372],"categories_sizes":[56,76,17,55,76,62,30,37],"default_left":[1,0,0,0,0,0,0,0,0,0,0,0,1,0,0,1,0,0,0,0,0,0,0,1,0,1,0,0,0,0,0,0,0,0,0,0,0,0,0,0,0,0,0,0,1,0,0,0,0,0,0,0,0,0,0,0,0,0,0,0,0,0,0,0,0],"id":5,"left_children":[1,3,5,7,9,11,13,-1,15,17,19,21,23,25,27,29,31,33,-1,35,-1,-1,37,39,-1,41,43,-1,45,47,-1,-1,-1,-1,49,51,53,-1,-1,-1,-1,55,57,59,61,63,-1,-1,-1,-1,-1,-1,-1,-1,-1,-1,-1,-1,-1,-1,-1,-1,-1,-1,-1],"loss_changes":[6.731895E1,1.006015E1,1.4440624E1,7.3589478E0,1.4244196E1,1.3515749E1,9.036535E0,0E0,3.1936913E0,1.2825413E0,7.142723E0,7.3408566E0,7.6952744E-1,1.4038022E1,8.474835E0,5.7112265E0,3.4110947E0,2.632141E-1,0E0,8.315539E0,0E0,0E0,2.7694569E0,2.5026703E-1,0E0,1.5201666E1,6.791664E0,0E0,4.317976E0,1.5249157E0,0E0,0E0,0E0,0E0,1.334394E0,8.696133E0,4.233143E0,0E0,0E0,0E0,0E0,1.03663845E1,1.0077829E1,1.0629406E0,3.5969725E0,6.397333E-1,0E0,0E0,0E0,0E0,0E0,0E0,0E0,0E0,0E0,0E0,0E0,0E0,0E0,0E0,0E0,0E0,0E0,0E0,0E0],"parents":[2147483647,0,0,1,1,2,2,3,3,4,4,5,5,6,6,8,8,9,9,10,10,11,11,12,12,13,13,14,14,15,15,16,16,17,17,19,19,22,22,23,23,25,25,26,26,28,28,29,29,34,34,35,35,36,36,41,41,42,42,43,43,44,44,45,45],"right_children":[2,4,6,8,10,12,14,-1,16,18,20,22,24,26,28,30,32,34,-1,36,-1,-1,38,40,-1,42,44,-1,46,48,-1,-1,-1,-1,50,52,54,-1,-1,-1,-1,56,58,60,62,64,-1,-1,-1,-1,-1,-1,-1,-1,-1,-1,-1,-1,-1,-1,-1,-1,-1,-1,-1],"split_conditions":[1E-45,3.6E1,2E0,8.8E0,1E-45,8E0,7E0,-1.5814679E-2,2E0,1E1,6E0,5E0,1E-45,5.68E1,3.38E1,1E-45,1E-45,3E0,1.650627E-2,4E0,-5.3233363E-2,-4.5644302E-2,7E0,1E-45,-3.5880353E-2,1E-45,4E0,-3.6563702E-2,3E0,7E0,-1.1450118E-2,1.495996E-2,6.569859E-2,6.970708E-2,4E0,6.34E1,5.55E1,5.650283E-2,-2.082383E-3,-3.4168344E-2,-7.735175E-2,1.29E1,1.55E1,3E0,1E-45,9E0,-3.5415296E-3,6.844186E-2,1.708945E-2,1.0792008E-2,5.772334E-2,1.0131116E-2,-5.0279435E-2,-2.5672147E-3,6.2095374E-2,2.5344828E-2,-3.3987433E-2,-4.0371913E-2,4.3617453E-2,-8.168514E-2,-3.9165065E-2,2.7437642E-2,-3.7628904E-2,2.6524812E-2,7.2743386E-2],"split_indices":[4,9,12,9,4,1,8,0,5,0,13,7,4,9,9,4,4,12,0,13,0,0,7,4,0,4,3,0,3,0,0,0,0,0,13,9,9,0,0,0,0,9,9,3,4,1,0,0,0,0,0,0,0,0,0,0,0,0,0,0,0,0,0,0,0],"split_type":[1,0,0,0,1,0,0,0,0,0,0,0,1,0,0,1,1,0,0,0,0,0,0,1,0,1,0,0,0,0,0,0,0,0,0,0,0,0,0,0,0,0,0,0,1,0,0,0,0,0,0,0,0,0,0,0,0,0,0,0,0,0,0,0,0],"sum_hessian":[2.5548616E2,1.188554E2,1.3663077E2,5.5058113E1,6.3797287E1,3.596716E1,1.00663605E2,3.7383938E0,5.131972E1,1.9145681E1,4.4651604E1,1.0966027E1,2.5001133E1,8.5213264E1,1.5450336E1,1.3498585E1,3.7821136E1,1.5656795E1,3.4888864E0,4.0427967E1,4.2236357E0,4.216238E0,6.749789E0,1.927134E1,5.7297926E0,6.3706985E1,2.1506279E1,3.460862E0,1.1989474E1,8.24775E0,5.250834E0,4.7283926E0,3.3092743E1,8.672556E0,6.984239E0,2.9433332E1,1.09946375E1,3.5072992E0,3.24249E0,3.2235692E0,1.604777E1,4.170719E1,2.1999794E1,1.5033725E1,6.4725547E0,8.743945E0,3.2455292E0,4.746061E0,3.5016894E0,3.7420583E0,3.2421808E0,2.2460995E1,6.9723363E0,3.249662E0,7.7449756E0,8.491138E0,3.3216053E1,3.4832792E0,1.8516516E1,8.618807E0,6.414918E0,3.2448745E0,3.22768E0,3.235537E0,5.5084085E0],"tree_param":{"num_deleted":"0","num_feature":"16","num_nodes":"65","size_leaf_vector":"1"}},{"base_weights":[-6.2747635E-2,-6.162065E-1,3.4080523E-1,-9.9732035E-1,-3.8034743E-1,1.18959546E-1,5.8821243E-1,1.3202605E-3,-1.1540695E0,-1.8209594E-1,-1.0925921E0,2.8262916E-1,-3.5362527E-1,8.1106657E-1,2.5411665E-1,-1.2717853E0,-1.0412059E-2,1.7024199E-2,-7.876225E-1,-7.9731435E-2,-4.4965124E-1,7.9737276E-2,1.0175201E0,-7.276163E-1,4.6603173E-2,2.3248388E-1,1.0753675E0,4.7884727E-1,-4.552952E-2,-1.4909796E0,-6.4128125E-1,-6.8294626E-1,2.9453012E-1,1.5961878E-3,-6.3819855E-2,-3.2046174E-3,-3.533268E-2,2.898366E-1,-3.2625502E-1,6.0316663E-2,2.624929E-2,1.6625302E-3,-1.0207765E0,-2.5456322E-2,9.09937E-1,1.4500029E-2,1.231484E0,1.0180606E-1,1.087079E0,-8.067798E-2,-2.9845564E-2,1.5558355E-2,-7.069908E-2,-6.278576E-2,2.782897E-2,3.262142E-2,-1.2492471E-2,-1.1170813E-2,3.6569588E-2,5.9244623E-3,-7.4646406E-2,-1.8632261E-2,-7.9304226E-2,1.961856E-2,5.9173483E-2,6.9107644E-2,2.9472932E-2,-2.415171E-2,3.7974793E-2,1.7138928E-2,7.391345E-2],"categories":[],"categories_nodes":[],"categories_segments":[],"categories_sizes":[],"default_left":[0,0,0,0,0,0,0,0,0,0,0,0,0,0,0,0,0,0,0,0,0,0,0,0,0,0,0,0,0,0,0,0,0,0,0,0,0,0,0,0,0,0,0,0,0,0,0,0,0,0,0,0,0,0,0,0,0,0,0,0,0,0,0,0,0,0,0,0,0,0,0],"id":6,"left_children":[1,3,5,7,9,11,13,-1,15,17,19,21,23,25,27,29,-1,31,33,-1,35,37,39,41,-1,43,45,47,-1,49,51,53,55,-1,-1,-1,-1,57,59,-1,-1,-1,61,-1,63,-1,65,67,69,-1,-1,-1,-1,-1,-1,-1,-1,-1,-1,-1,-1,-1,-1,-1,-1,-1,-1,-1,-1,-1,-1],"loss_changes":[5.3536102E1,8.569546E0,7.4635353E0,6.2194443E0,8.741907E0,5.8562393E0,4.529354E0,0E0,3.2551765E0,6.305729E0,3.492176E0,8.167593E0,1.0012232E1,5.48752E0,7.632081E0,2.8396835E0,0E0,7.8634343E0,5.3332415E0,0E0,6.183871E-1,3.939719E0,3.0363464E-1,3.6330185E0,0E0,7.249481E0,2.6721058E0,5.2540183E0,0E0,1.0792389E0,7.435601E0,8.901148E0,5.8907523E0,0E0,0E0,0E0,0E0,7.1096325E0,8.458243E0,0E0,0E0,0E0,3.409892E0,0E0,4.3228006E-1,0E0,1.0418167E0,6.5356956E0,1.9157848E0,0E0,0E0,0E0,0E0,0E0,0E0,0E0,0E0,0E0,0E0,0E0,0E0,0E0,0E0,0E0,0E0,0E0,0E0,0E0,0E0,0E0,0E0],"parents":[2147483647,0,0,1,1,2,2,3,3,4,4,5,5,6,6,8,8,9,9,10,10,11,11,12,12,13,13,14,14,15,15,17,17,18,18,20,20,21,21,22,22,23,23,25,25,26,26,27,27,29,29,30,30,31,31,32,32,37,37,38,38,42,42,44,44,46,46,47,47,48,48],"right_children":[2,4,6,8,10,12,14,-1,16,18,20,22,24,26,28,30,-1,32,34,-1,36,38,40,42,-1,44,46,48,-1,50,52,54,56,-1,-1,-1,-1,58,60,-1,-1,-1,62,-1,64,-1,66,68,70,-1,-1,-1,-1,-1,-1,-1,-1,-1,-1,-1,-1,-1,-1,-1,-1,-1,-1,-1,-1,-1,-1],"split_conditions":[2.5E-1,1.667E-1,3.63E1,2E0,8E0,1.13E1,5.93E1,1.3202605E-3,8E0,6E0,2E-1,4.7E0,2.3E1,2E0,5E0,4E0,-1.0412059E-2,1E1,1.818E-1,-7.9731435E-2,9E0,2E1,4E0,2E0,4.6603173E-2,6E0,9E0,4E0,-4.552952E-2,7E0,5E0,6E0,3E0,1.5961878E-3,-6.3819855E-2,-3.2046174E-3,-3.533268E-2,3E0,6E0,6.0316663E-2,2.624929E-2,1.6625302E-3,3E0,-2.5456322E-2,7E0,1.4500029E-2,4.167E-1,9E0,7.84E1,-8.067798E-2,-2.9845564E-2,1.5558355E-2,-7.069908E-2,-6.278576E-2,2.782897E-2,3.262142E-2,-1.2492471E-2,-1.1170813E-2,3.6569588E-2,5.9244623E-3,-7.4646406E-2,-1.8632261E-2,-7.9304226E-2,1.961856E-2,5.9173483E-2,6.9107644E-2,2.9472932E-2,-2.415171E-2,3.7974793E-2,1.7138928E-2,7.391345E-2],"split_indices":[15,15,10,2,7,10,10,0,8,2,15,10,1,13,13,3,0,1,15,0,0,1,13,6,0,2,1,3,0,13,0,7,13,0,0,0,0,3,14,0,0,0,3,0,7,0,15,0,10,0,0,0,0,0,0,0,0,0,0,0,0,0,0,0,0,0,0,0,0,0,0],"split_type":[0,0,0,0,0,0,0,0,0,0,0,0,0,0,0,0,0,0,0,0,0,0,0,0,0,0,0,0,0,0,0,0,0,0,0,0,0,0,0,0,0,0,0,0,0,0,0,0,0,0,0,0,0,0,0,0,0,0,0,0,0,0,0,0,0,0,0,0,0,0,0],"sum_hessian":[2.376325E2,1.00087204E2,1.375453E2,3.68655E1,6.3221703E1,7.351274E1,6.403257E1,4.920885E0,3.1944614E1,5.0547894E1,1.267381E1,5.50581E1,1.845464E1,3.7375065E1,2.6657505E1,2.8008398E1,3.9362168E0,3.864627E1,1.1901623E1,6.1982203E0,6.4755893E0,4.4121437E1,1.0936663E1,1.469259E1,3.7620492E0,1.2427634E1,2.4947432E1,2.2911459E1,3.7460465E0,1.9652777E1,8.35562E0,1.0454604E1,2.8191668E1,4.7190733E0,7.1825495E0,3.2453506E0,3.230239E0,2.9426014E1,1.4695424E1,6.7115264E0,4.225136E0,4.2382135E0,1.0454376E1,5.981034E0,6.4466E0,4.716838E0,2.0230595E1,1.49659195E1,7.94554E0,1.6477118E1,3.1756594E0,3.9520786E0,4.4035416E0,7.1967115E0,3.2578924E0,1.7000216E1,1.1191451E1,1.3731919E1,1.5694094E1,1.1227966E1,3.4674578E0,5.7257876E0,4.7285886E0,3.1971483E0,3.2494516E0,1.5325494E1,4.9051E0,7.981769E0,6.9841504E0,3.471789E0,4.473751E0],"tree_param":{"num_deleted":"0","num_feature":"16","num_nodes":"71","size_leaf_vector":"1"}},{"base_weights":[4.6663027E-2,-8.495948E-1,2.8524116E-1,-7.532124E-2,-6.116465E-1,-4.847716E-2,4.822099E-1,2.6110379E-2,-8.651224E-1,2.4921606E-1,-4.9847984E-1,5.884192E-1,-7.2163E-2,-4.9179974E-1,4.8006214E-2,-2.189993E-1,-1.2886488E0,-4.5915574E-1,4.9310523E-1,-5.2344482E-2,-3.3292738E-1,-2.354305E-2,6.398215E-1,-8.6502457E-1,5.528754E-1,-6.458193E-2,1.1111139E-2,3.3950247E-2,-8.106501E-1,-1.5153632E-2,-8.019443E-2,-5.3103328E-2,6.3534486E-3,7.584297E-1,-4.7551635E-1,-5.684675E-1,4.863584E-2,2.7600834E-1,8.252678E-1,-8.019869E-2,2.0533174E-2,4.6596684E-2,6.1558783E-2,-2.479E-3,-6.712286E-2,4.7568697E-2,8.639802E-3,-3.893205E-2,-9.5569884E-4,-5.922954E-2,2.1634537E-3,2.6789365E-2,-2.15378E-2,6.7668534E-3,4.9260832E-2,4.4022672E-2,7.429844E-4,-1.507835E-2,2.2488415E-2],"categories":[],"categories_nodes":[],"categories_segments":[],"categories_sizes":[],"default_left":[0,0,0,0,0,0,0,0,0,0,0,0,0,0,0,0,0,0,0,0,0,0,0,0,0,0,0,0,0,0,0,0,0,0,0,0,0,0,0,0,0,0,0,0,0,0,0,0,0,0,0,0,0,0,0,0,0,0,0],"id":7,"left_children":[1,3,5,-1,7,9,11,13,15,17,19,21,23,25,-1,27,29,31,33,-1,35,-1,37,39,41,-1,-1,-1,43,-1,-1,-1,-1,45,47,49,51,53,55,-1,-1,57,-1,-1,-1,-1,-1,-1,-1,-1,-1,-1,-1,-1,-1,-1,-1,-1,-1],"loss_changes":[5.2270855E1,6.8958397E0,1.2766959E1,0E0,6.492895E0,9.8523855E0,7.264406E0,6.3695374E0,7.3418865E0,7.8532887E0,2.174171E0,5.897064E0,1.057905E1,5.175644E0,0E0,7.23031E0,4.5626965E0,4.3687763E0,8.975837E0,0E0,2.2470891E0,0E0,6.289612E0,9.65568E0,3.9019928E0,0E0,0E0,0E0,3.0674286E0,0E0,0E0,0E0,0E0,2.7394981E0,9.730917E-1,5.876477E0,2.568299E0,3.2314987E0,2.7767181E0,0E0,0E0,1.2648156E0,0E0,0E0,0E0,0E0,0E0,0E0,0E0,0E0,0E0,0E0,0E0,0E0,0E0,0E0,0E0,0E0,0E0],"parents":[2147483647,0,0,1,1,2,2,4,4,5,5,6,6,7,7,8,8,9,9,10,10,11,11,12,12,13,13,15,15,16,16,17,17,18,18,20,20,22,22,23,23,24,24,28,28,33,33,34,34,35,35,36,36,37,37,38,38,41,41],"right_children":[2,4,6,-1,8,10,12,14,16,18,20,22,24,26,-1,28,30,32,34,-1,36,-1,38,40,42,-1,-1,-1,44,-1,-1,-1,-1,46,48,50,52,54,56,-1,-1,58,-1,-1,-1,-1,-1,-1,-1,-1,-1,-1,-1,-1,-1,-1,-1,-1,-1],"split_conditions":[1.818E-1,9.09E-2,2.667E-1,-7.532124E-2,9E0,3E0,6.86E1,6.42E1,3E0,5E0,4E0,8.8E0,3E0,6E0,4.8006214E-2,4E0,3E0,2.143E-1,6E0,-5.2344482E-2,2.222E-1,-2.354305E-2,1.3E1,1.4E1,1.1E1,-6.458193E-2,1.1111139E-2,3.3950247E-2,3E0,-1.5153632E-2,-8.019443E-2,-5.3103328E-2,6.3534486E-3,2E1,1.7E1,3.78E1,3.34E1,1.2E1,7.36E1,-8.019869E-2,2.0533174E-2,6E0,6.1558783E-2,-2.479E-3,-6.712286E-2,4.7568697E-2,8.639802E-3,-3.893205E-2,-9.5569884E-4,-5.922954E-2,2.1634537E-3,2.6789365E-2,-2.15378E-2,6.7668534E-3,4.9260832E-2,4.4022672E-2,7.429844E-4,-1.507835E-2,2.2488415E-2],"split_indices":[15,15,15,0,1,13,9,9,7,0,13,9,13,1,0,0,2,15,6,0,15,0,1,11,0,0,0,0,3,0,0,0,0,1,1,9,9,0,10,0,0,7,0,0,0,0,0,0,0,0,0,0,0,0,0,0,0,0,0],"split_type":[0,0,0,0,0,0,0,0,0,0,0,0,0,0,0,0,0,0,0,0,0,0,0,0,0,0,0,0,0,0,0,0,0,0,0,0,0,0,0,0,0,0,0,0,0,0,0,0,0,0,0,0,0,0,0,0,0,0,0],"sum_hessian":[2.4258397E2,5.0372227E1,1.9221175E2,1.18660755E1,3.850615E1,7.1432304E1,1.2077944E2,1.1094459E1,2.7411692E1,4.3126507E1,2.8305794E1,1.01460205E2,1.931924E1,7.372695E0,3.7217638E0,1.1547805E1,1.5863887E1,1.0714313E1,3.2412197E1,5.189009E0,2.3116783E1,4.22788E0,9.723232E1,8.417577E0,1.0901665E1,3.1618838E0,4.210811E0,4.4607067E0,7.087098E0,4.396654E0,1.1467233E1,4.965921E0,5.748392E0,2.5694271E1,6.717925E0,1.4152589E1,8.964194E0,3.385072E1,6.3381603E1,5.2167783E0,3.200798E0,6.938751E0,3.9629133E0,3.442211E0,3.6448872E0,1.872862E1,6.9656506E0,3.480901E0,3.2370238E0,6.6659093E0,7.48668E0,4.4912276E0,4.4729667E0,2.9359169E1,4.4915524E0,5.9144283E1,4.2373204E0,3.7255168E0,3.2132344E0],"tree_param":{"num_deleted":"0","num_feature":"16","num_nodes":"59","size_leaf_vector":"1"}},{"base_weights":[-3.3900604E-2,-5.0554794E-1,3.114889E-1,-1.0882398E0,-3.144639E-1,9.090866E-2,5.800052E-1,-1.3081907E-2,-1.2580291E0,-6.070675E-1,2.15302E-1,-3.0664596E-1,2.6244214E-1,1.9715244E-1,7.471433E-1,-7.524669E-2,-6.997667E-1,-1.0995699E0,-3.8510844E-1,5.146545E-1,-4.9385753E-2,-8.9986324E-1,-2.5483496E-2,1.2778483E-1,5.7814624E-2,-4.0463802E-1,9.835129E-1,1.0131316E0,2.754367E-1,5.389829E-3,-6.269525E-2,-6.798535E-2,-8.2588615E-3,-8.41381E-1,-6.8659276E-2,7.725758E-1,-2.2877071E-2,-4.2548547E-3,-7.367365E-2,-4.3271065E-2,2.454387E-1,-8.484994E-3,5.3737175E-2,1.2932616E-2,-5.770464E-2,1.5092613E-2,6.636914E-2,1.5157494E-2,1.102326E0,8.101106E-1,-3.7615225E-2,3.7735377E-3,-6.431738E-2,5.047327E-2,-1.696107E-2,5.029204E-2,7.738014E-3,2.4803016E-2,-1.5653407E-2,3.3281054E-2,-1.5093165E-2,6.220124E-2,2.4453297E-2,5.594938E-2,4.348598E-3],"categories":[0,1,2,3,4,5,6,7,8,9,10,11,12,13,14,15,16,17,18,19,20,21,22,23,24,25,26,27,28,29,30,31,32,33,34,35,36,37,38,39,40,41,42,43,44,45,46,47,48,49,50,51,52,53,54,55,56,57,58,59,60,61,62,63,64,65,66,67,68,69,70,0,1,2,3,4,5,6,7,8,9,10,11,12,13,14,15,16,17,18,19,20,21,22,23,24,0,1,2,3,4,5,6,7,8,9,10,11,12,13,14,15,16,17,18,19,20,21,22,23,24,25,26,27,28,29,30,31,32,33,34,35,36,37,38,39,40,41,42,43,44,45,46,47,48,49,0,1,2,3,4,5,6,7,8,9,10,11,12,13,14,15,16,17,18,19,20,21,22,23,24,25,26,27,28,29,30,31,32,0,1,2,3,4,5,6,7,8,9,10,11,12,13,14,15,16,17,18,19,20,21,22,23,24,25,26,27,28,29,30,31,32,33,34,35,36,37,38,39,40,41,42,43,44,45,46,47,48,49,51,52,53,54,55,56,57,58,59,60,61,62,63,64,66,67,68,69,70,71,72,73,74,75],"categories_nodes":[3,17,22,35,41],"categories_segments":[0,71,96,146,179],"categories_sizes":[71,25,50,33,74],"default_left":[0,0,0,0,0,0,0,0,0,0,0,0,0,0,0,0,0,1,0,0,0,0,1,0,0,0,0,0,0,0,0,0,0,0,0,1,0,0,0,0,0,0,0,0,0,0,0,0,0,0,0,0,0,0,0,0,0,0,0,0,0,0,0,0,0],"id":8,"left_children":[1,3,5,7,9,11,13,-1,15,17,19,21,23,25,27,-1,29,31,33,35,-1,37,39,41,-1,43,45,47,49,-1,-1,-1,-1,51,53,55,-1,-1,-1,-1,57,59,-1,-1,-1,-1,-1,-1,61,63,-1,-1,-1,-1,-1,-1,-1,-1,-1,-1,-1,-1,-1,-1,-1],"loss_changes":[3.9043026E1,1.0803492E1,8.067099E0,2.9568195E0,1.2240061E1,5.345803E0,3.7222767E0,0E0,1.477478E0,4.953371E0,1.0660479E1,3.8170846E0,6.3074884E0,1.0093452E1,4.9348087E0,0E0,3.8806307E0,3.274681E0,5.124391E0,6.253202E0,0E0,3.1949997E0,4.174682E0,6.407598E0,0E0,6.439479E0,1.5911522E0,1.2173347E0,9.881366E0,0E0,0E0,0E0,0E0,6.230813E0,6.921201E0,2.4591093E0,0E0,0E0,0E0,0E0,2.0840516E0,8.772269E0,0E0,0E0,0E0,0E0,0E0,0E0,1.2371845E0,2.381465E0,0E0,0E0,0E0,0E0,0E0,0E0,0E0,0E0,0E0,0E0,0E0,0E0,0E0,0E0,0E0],"parents":[2147483647,0,0,1,1,2,2,3,3,4,4,5,5,6,6,8,8,9,9,10,10,11,11,12,12,13,13,14,14,16,16,17,17,18,18,19,19,21,21,22,22,23,23,25,25,26,26,27,27,28,28,33,33,34,34,35,35,40,40,41,41,48,48,49,49],"right_children":[2,4,6,8,10,12,14,-1,16,18,20,22,24,26,28,-1,30,32,34,36,-1,38,40,42,-1,44,46,48,50,-1,-1,-1,-1,52,54,56,-1,-1,-1,-1,58,60,-1,-1,-1,-1,-1,-1,62,64,-1,-1,-1,-1,-1,-1,-1,-1,-1,-1,-1,-1,-1,-1,-1],"split_conditions":[2.5E-1,2E0,3.63E1,1E-45,4E0,2E0,2E0,-1.3081907E-2,4.15E1,2E0,6E0,5E0,7E0,6E0,5.93E1,-7.524669E-2,5.14E1,1E-45,7.5E0,5E0,-4.9385753E-2,4E0,1E-45,6E0,5.7814624E-2,3E0,6.35E1,2.727E-1,3E0,5.389829E-3,-6.269525E-2,-6.798535E-2,-8.2588615E-3,1.765E-1,1.36E1,1E-45,-2.2877071E-2,-4.2548547E-3,-7.367365E-2,-4.3271065E-2,4E0,1E-45,5.3737175E-2,1.2932616E-2,-5.770464E-2,1.5092613E-2,6.636914E-2,1.5157494E-2,6E0,3.333E-1,-3.7615225E-2,3.7735377E-3,-6.431738E-2,5.047327E-2,-1.696107E-2,5.029204E-2,7.738014E-3,2.4803016E-2,-1.5653407E-2,3.3281054E-2,-1.5093165E-2,6.220124E-2,2.4453297E-2,5.594938E-2,4.348598E-3],"split_indices":[15,14,10,4,12,13,12,0,10,13,6,0,8,14,10,0,10,4,10,13,0,12,4,12,0,3,10,15,13,0,0,0,0,15,10,4,0,0,0,0,6,4,0,0,0,0,0,0,12,15,0,0,0,0,0,0,0,0,0,0,0,0,0,0,0],"split_type":[0,0,0,1,0,0,0,0,0,0,0,0,0,0,0,0,0,1,0,0,0,0,1,0,0,0,0,0,0,0,0,0,0,0,0,1,0,0,0,0,0,1,0,0,0,0,0,0,0,0,0,0,0,0,0,0,0,0,0,0,0,0,0,0,0],"sum_hessian":[2.3758604E2,1.00362144E2,1.3722389E2,2.349575E1,7.6866394E1,7.6275894E1,6.0947998E1,4.5371304E0,1.895862E1,4.954451E1,2.7321886E1,2.2577799E1,5.3698097E1,1.936582E1,4.158218E1,1.1845011E1,7.113609E0,1.4023491E1,3.552102E1,2.2402649E1,4.9192376E0,6.438082E0,1.6139715E1,4.775822E1,5.939874E0,1.1173308E1,8.1925125E0,2.5719528E1,1.586265E1,3.1491954E0,3.9644132E0,1.0529778E1,3.4937136E0,1.3738017E1,2.1783E1,1.7949009E1,4.45364E0,3.206375E0,3.2317073E0,3.4910865E0,1.264863E1,4.2524303E1,5.2339196E0,6.204015E0,4.969293E0,3.474183E0,4.7183294E0,3.486569E0,2.223296E1,1.06375885E1,5.2250614E0,4.6867146E0,9.051303E0,3.747906E0,1.8035095E1,1.2456107E1,5.4929013E0,8.931577E0,3.7170532E0,1.2406883E1,3.0117418E1,1.7092085E1,5.140875E0,6.9733477E0,3.6642413E0],"tree_param":{"num_deleted":"0","num_feature":"16","num_nodes":"65","size_leaf_vector":"1"}},{"base_weights":[3.2300003E-2,5.74415E-1,-3.058752E-1,-8.974798E-2,6.730302E-1,-1.2091427E-1,-5.8698744E-1,-9.353863E-1,4.4454798E-2,7.783099E-1,-8.879669E-2,-1.27579495E-2,-6.325568E-2,-9.1470605E-1,4.1657865E-1,-7.465785E-2,-6.538746E-3,4.400626E-1,9.727386E-1,-4.1373234E-2,3.9856836E-2,2.083196E-1,-5.1713276E-1,-1.170373E0,-2.71048E-1,9.0004593E-1,-2.7162597E-2,-1.5712652E-1,8.417211E-1,6.4721875E-2,4.3024606E-1,6.2261504E-1,-1.7204767E-2,-1.1962333E0,-1.7676413E-1,-1.3028892E0,3.4479983E-4,-8.2538426E-1,2.2981143E-2,-0E0,6.4525396E-2,3.601319E-2,-4.3593537E-2,1.8836455E-3,6.004672E-2,-9.37297E-4,6.177569E-2,4.221825E-2,-1.3211402E-2,-2.554503E-2,2.3187857E-2,-7.122939E-2,-2.9432302E-2,6.164669E-3,-6.494748E-2,-7.3993556E-2,-4.6207342E-2,4.0016263E-3,-6.9911346E-2],"categories":[0,1,3,4,5,6,7,11,14,15,16,18,19,20,21,23,24,25,26,27,28,29,30,31,32,34,36,37,38,40,41,42,43,44,45,46,48,49,51,52,53,56,57,58,59,61,63,64,65,66,68,69,70,71,73,74,77,79,80,0,1,2,3,4,5,6,7,8,9,10,11,12,13,14,15,16,17,18,19,20,21,22,23,24,25,26,27,28,29,30,31,32,33,34,35,36,37,38,0,1,2,3,4,5,6,7,8,9,10,11,12,13,14,15,16,17,18,19,20,21,22,23,24,25,26,0,1,2,3,4,5,6,7,8,9,10,11,12,13,14,15,16,17,18,19,20,21,22,23,24,25,26,27,28,29,30,31,32,33,34,35,36,37,38,39,40,41,42,43,44,45,46,47,48,49,50,51,52,53,54,55,56,57],"categories_nodes":[0,14,24,37],"categories_segments":[0,59,98,125],"categories_sizes":[59,39,27,58],"default_left":[1,0,0,0,0,0,0,0,0,0,0,0,0,0,1,0,0,0,0,0,0,0,0,0,1,0,0,0,0,0,0,0,0,0,0,0,0,1,0,0,0,0,0,0,0,0,0,0,0,0,0,0,0,0,0,0,0,0,0],"id":9,"left_children":[1,3,5,7,9,11,13,15,-1,17,19,21,-1,23,25,-1,-1,27,29,-1,-1,31,33,35,37,39,-1,41,43,-1,45,47,49,51,53,55,-1,57,-1,-1,-1,-1,-1,-1,-1,-1,-1,-1,-1,-1,-1,-1,-1,-1,-1,-1,-1,-1,-1],"loss_changes":[4.4847626E1,6.276308E0,7.683939E0,1.1518975E1,6.723526E0,1.1272705E1,1.9919277E1,2.9930491E0,0E0,4.189186E0,7.698469E0,9.658611E0,0E0,6.9532814E0,7.577563E0,0E0,0E0,7.0187416E0,7.112156E0,0E0,0E0,5.671069E0,5.7634153E0,5.1051025E0,6.176259E0,3.8042727E0,0E0,8.276699E0,4.813613E0,0E0,6.7757587E0,4.4716167E0,9.650544E0,1.4734364E-1,6.637024E0,3.154869E-1,0E0,4.6638227E0,0E0,0E0,0E0,0E0,0E0,0E0,0E0,0E0,0E0,0E0,0E0,0E0,0E0,0E0,0E0,0E0,0E0,0E0,0E0,0E0,0E0],"parents":[2147483647,0,0,1,1,2,2,3,3,4,4,5,5,6,6,7,7,9,9,10,10,11,11,13,13,14,14,17,17,18,18,21,21,22,22,23,23,24,24,25,25,27,27,28,28,30,30,31,31,32,32,33,33,34,34,35,35,37,37],"right_children":[2,4,6,8,10,12,14,16,-1,18,20,22,-1,24,26,-1,-1,28,30,-1,-1,32,34,36,38,40,-1,42,44,-1,46,48,50,52,54,56,-1,58,-1,-1,-1,-1,-1,-1,-1,-1,-1,-1,-1,-1,-1,-1,-1,-1,-1,-1,-1,-1,-1],"split_conditions":[1E-45,6E0,4.65E1,5.24E1,6E0,4.17E1,7.3E0,3.77E1,4.4454798E-2,2E0,3E0,6E0,-6.325568E-2,4E0,1E-45,-7.465785E-2,-6.538746E-3,1.5E1,5E0,-4.1373234E-2,3.9856836E-2,3E0,1.1E1,9.75E1,1E-45,3E0,-2.7162597E-2,1.9E1,5E0,6.4721875E-2,3E0,1.9E1,3E0,1.38E1,2.83E1,4E0,3.4479983E-4,1E-45,2.2981143E-2,-0E0,6.4525396E-2,3.601319E-2,-4.3593537E-2,1.8836455E-3,6.004672E-2,-9.37297E-4,6.177569E-2,4.221825E-2,-1.3211402E-2,-2.554503E-2,2.3187857E-2,-7.122939E-2,-2.9432302E-2,6.164669E-3,-6.494748E-2,-7.3993556E-2,-4.6207342E-2,4.0016263E-3,-6.9911346E-2],"split_indices":[4,1,9,10,13,11,11,9,0,13,12,6,0,3,4,0,0,10,2,0,0,2,1,9,4,12,0,1,14,0,5,1,14,9,9,13,0,4,0,0,0,0,0,0,0,0,0,0,0,0,0,0,0,0,0,0,0,0,0],"split_type":[1,0,0,0,0,0,0,0,0,0,0,0,0,0,1,0,0,0,0,0,0,0,0,0,1,0,0,0,0,0,0,0,0,0,0,0,0,1,0,0,0,0,0,0,0,0,0,0,0,0,0,0,0,0,0,0,0,0,0],"sum_hessian":[2.4252321E2,9.301375E1,1.4950945E2,1.1905739E1,8.110801E1,9.125384E1,5.8255615E1,6.4661183E0,5.439621E0,7.1356606E1,9.751405E0,8.437662E1,6.877218E0,4.405686E1,1.4198756E1,3.240036E0,3.226082E0,2.7424301E1,4.393231E1,5.4152136E0,4.3361907E0,5.8933563E1,2.5443052E1,3.0835167E1,1.3221694E1,9.55325E0,4.6455064E0,1.117261E1,1.625169E1,2.6592495E1,1.7339813E1,2.0308632E1,3.8624935E1,7.557022E0,1.788603E1,2.7695889E1,3.1392782E0,7.522132E0,5.699562E0,3.135695E0,6.4175553E0,4.9493556E0,6.223255E0,5.445645E0,1.0806045E1,1.1679968E1,5.6598444E0,1.6374853E1,3.9337773E0,1.9132032E1,1.94929E1,4.395701E0,3.1613212E0,1.4744551E1,3.1414788E0,1.6714186E1,1.0981701E1,3.1806376E0,4.3414946E0],"tree_param":{"num_deleted":"0","num_feature":"16","num_nodes":"59","size_leaf_vector":"1"}},{"base_weights":[5.637177E-3,-4.7550127E-1,3.114222E-1,1.4537641E-1,-6.0554683E-1,3.4965284E-2,6.227284E-1,-4.8713457E-2,6.9682914E-1,-1.0288236E0,-3.173636E-1,3.650551E-1,-2.0034355E-1,-2.4192449E-2,7.2084796E-1,6.844842E-2,2.9460806E-1,-1.1344107E0,-4.3589305E-3,-7.900068E-1,9.371352E-2,-2.4370024E-2,1.0347306E0,-4.2395726E-1,4.5003223E-1,9.6266323E-1,4.5297724E-1,-8.326295E-3,3.4691356E-2,-7.376785E-2,-6.8210745E-1,-7.4389346E-2,-3.761379E-1,-7.077261E-2,4.1285047E-1,-5.65767E-1,3.4040856E-1,-0E0,7.687875E-2,-1.3501403E0,-7.656814E-2,1.034991E0,-2.8698737E-2,1.0775145E0,2.6769533E-3,6.8326306E-1,-2.6019335E-2,-1.0280666E-2,-6.540355E-2,3.316943E-2,-3.4953196E-2,4.292681E-2,-7.3493654E-3,1.7552666E-2,-7.623371E-2,4.2750683E-2,-4.9119163E-3,-7.8324966E-2,-3.29357E-2,-2.4819864E-2,9.92129E-3,6.547453E-2,2.7130533E-2,3.6427215E-2,7.0292056E-2,4.5634102E-2,-1.4500196E-2],"categories":[69,0,1,2,3,4,5,6,7,8,9,10,11,12,13,14,15,16,17,18,19,20,21,22,23,24,25,26,27,28,29,30,31,32,33,34,35,36,37,38,39,40,41,42,43,44,45,46,47],"categories_nodes":[9,22],"categories_segments":[0,1],"categories_sizes":[1,48],"default_left":[0,0,0,0,0,0,0,0,0,1,0,0,0,0,0,0,0,0,0,0,0,0,1,0,0,0,0,0,0,0,0,0,0,0,0,0,0,0,0,0,0,0,0,0,0,0,0,0,0,0,0,0,0,0,0,0,0,0,0,0,0,0,0,0,0,0,0],"id":10,"left_children":[1,3,5,7,9,11,13,-1,15,17,19,21,23,-1,25,-1,27,29,-1,31,33,35,37,39,41,43,45,-1,-1,-1,47,-1,49,-1,51,53,55,-1,-1,57,59,61,-1,63,-1,65,-1,-1,-1,-1,-1,-1,-1,-1,-1,-1,-1,-1,-1,-1,-1,-1,-1,-1,-1,-1,-1],"loss_changes":[3.67181E1,7.9579773E0,1.3060783E1,1.14280815E1,9.351709E0,6.4702005E0,8.149759E0,0E0,2.7657404E0,2.9604187E0,9.750847E0,9.18063E0,7.231149E0,0E0,3.7156677E0,0E0,1.8409092E0,3.1873398E0,0E0,5.9597616E0,1.3597306E1,4.72496E0,6.7568874E0,1.1551252E1,8.284054E0,3.3530884E0,7.8878284E0,0E0,0E0,0E0,3.8376675E0,0E0,5.8395805E0,0E0,6.01173E0,9.161395E0,3.355391E0,0E0,0E0,2.2104073E-1,3.3382473E0,2.585659E-1,0E0,2.1782951E0,0E0,6.4965544E0,0E0,0E0,0E0,0E0,0E0,0E0,0E0,0E0,0E0,0E0,0E0,0E0,0E0,0E0,0E0,0E0,0E0,0E0,0E0,0E0,0E0],"parents":[2147483647,0,0,1,1,2,2,3,3,4,4,5,5,6,6,8,8,9,9,10,10,11,11,12,12,14,14,16,16,17,17,19,19,20,20,21,21,22,22,23,23,24,24,25,25,26,26,30,30,32,32,34,34,35,35,36,36,39,39,40,40,41,41,43,43,45,45],"right_children":[2,4,6,8,10,12,14,-1,16,18,20,22,24,-1,26,-1,28,30,-1,32,34,36,38,40,42,44,46,-1,-1,-1,48,-1,50,-1,52,54,56,-1,-1,58,60,62,-1,64,-1,66,-1,-1,-1,-1,-1,-1,-1,-1,-1,-1,-1,-1,-1,-1,-1,-1,-1,-1,-1,-1,-1],"split_conditions":[2.308E-1,2E0,3.42E1,7.5E0,1.667E-1,3.5E1,2E0,-4.8713457E-2,1.78E1,1E-45,3E0,6E0,4E-1,-2.4192449E-2,5E0,6.844842E-2,8E0,4E0,-4.3589305E-3,4E0,6E0,1.65E1,1E-45,2E0,4E0,6E0,6.1E1,-8.326295E-3,3.4691356E-2,-7.376785E-2,6E0,-7.4389346E-2,1.28E1,-7.077261E-2,1.36E1,3E0,2E0,-0E0,7.687875E-2,5E0,4E0,5.8E0,-2.8698737E-2,6E0,2.6769533E-3,1E1,-2.6019335E-2,-1.0280666E-2,-6.540355E-2,3.316943E-2,-3.4953196E-2,4.292681E-2,-7.3493654E-3,1.7552666E-2,-7.623371E-2,4.2750683E-2,-4.9119163E-3,-7.8324966E-2,-3.29357E-2,-2.4819864E-2,9.92129E-3,6.547453E-2,2.7130533E-2,3.6427215E-2,7.0292056E-2,4.5634102E-2,-1.4500196E-2],"split_indices":[15,2,10,10,15,9,2,0,9,4,12,2,15,0,2,0,0,6,0,7,1,9,4,12,2,6,9,0,0,0,7,0,10,0,10,2,12,0,0,6,6,10,0,7,0,0,0,0,0,0,0,0,0,0,0,0,0,0,0,0,0,0,0,0,0,0,0],"split_type":[0,0,0,0,0,0,0,0,0,1,0,0,0,0,0,0,0,0,0,0,0,0,1,0,0,0,0,0,0,0,0,0,0,0,0,0,0,0,0,0,0,0,0,0,0,0,0,0,0,0,0,0,0,0,0,0,0,0,0,0,0,0,0,0,0,0,0],"sum_hessian":[2.4767595E2,9.58999E1,1.5177605E2,1.6454447E1,7.944546E1,8.1146805E1,7.062925E1,5.117014E0,1.1337432E1,3.099852E1,4.8446934E1,3.371924E1,4.7427563E1,5.3493786E0,6.527987E1,3.2516165E0,8.085815E0,2.7593533E1,3.404987E0,2.222026E1,2.6226673E1,2.1835747E1,1.1883492E1,3.566651E1,1.176105E1,3.274913E1,3.253074E1,3.9061928E0,4.179623E0,1.4317806E1,1.3275726E1,7.2166286E0,1.5003633E1,3.9236312E0,2.2303041E1,8.678477E0,1.31572695E1,4.190753E0,7.6927395E0,8.862793E0,2.6803719E1,7.5405045E0,4.220546E0,2.881381E1,3.9353209E0,2.663096E1,5.8997784E0,8.382814E0,4.892912E0,3.232847E0,1.1770785E1,1.2219891E1,1.0083152E1,4.707351E0,3.971126E0,5.722546E0,7.434723E0,5.676337E0,3.1864567E0,1.0433529E1,1.637019E1,3.6455328E0,3.8949716E0,1.5675859E1,1.3137952E1,2.1684479E1,4.9464803E0],"tree_param":{"num_deleted":"0","num_feature":"16","num_nodes":"67","size_leaf_vector":"1"}},{"base_weights":[1.42401885E-2,-4.8508328E-1,3.1960574E-1,-9.570499E-1,-3.1263506E-1,1.8457611E-1,8.95542E-1,-7.183053E-2,-4.0771177E-1,-6.188941E-2,-2.2064193E-1,5.0469965E-1,-1.4804831E-1,1.1087039E0,4.4222516E-1,-4.5490164E-2,2.7676877E-3,3.5033247E-1,-3.3079866E-1,2.2023575E-1,8.663041E-1,-3.8391104E-1,4.63439E-1,8.295857E-1,7.100438E-2,5.4155704E-2,-0E0,-2.0014713E-2,5.186632E-2,-5.259032E-1,1.5401135E-1,3.9440632E-1,-2.5684262E-2,5.708006E-2,2.2957458E-1,7.098202E-2,-7.100656E-1,-9.065608E-2,9.1848725E-1,5.429362E-2,1.462553E-2,1.6216135E-2,-1.5261727E-2,-3.641061E-2,1.9928649E-2,-3.637625E-2,4.1626465E-2,2.7497828E-2,-2.321835E-2,-2.2812832E-2,4.1767247E-2,-3.272636E-2,2.7787147E-2,-4.9826432E-2,2.891083E-2,-4.0595457E-2,2.4816789E-2,6.1405238E-2,1.3451687E-2],"categories":[0,2,3,6,7,8,9,10,11,13,14,15,16,17,18,19,20,21,22,23,24,25,26,27,28,29,30,31,32,33,34,35,36,37,38,40,41,42,43,44,45,46,48,49,51,52,53,55,56,57,58,59,60,61,62,79,0,1,2,3,4,5,6,7,8,9,10,11,12,13,14],"categories_nodes":[5,35],"categories_segments":[0,56],"categories_sizes":[56,15],"default_left":[0,0,0,0,0,1,0,0,0,0,0,0,0,0,0,0,0,0,0,0,0,0,0,0,0,0,0,0,0,0,0,0,0,0,0,1,0,0,0,0,0,0,0,0,0,0,0,0,0,0,0,0,0,0,0,0,0,0,0],"id":11,"left_children":[1,3,5,7,9,11,13,-1,15,-1,17,19,21,23,25,-1,-1,27,29,31,33,35,37,39,-1,-1,41,-1,-1,43,45,47,-1,-1,49,51,53,55,57,-1,-1,-1,-1,-1,-1,-1,-1,-1,-1,-1,-1,-1,-1,-1,-1,-1,-1,-1,-1],"loss_changes":[3.561534E1,6.7823315E0,1.1011187E1,5.3049965E0,5.241302E0,1.2775791E1,1.9789276E0,0E0,2.982057E0,0E0,4.001397E0,5.9743624E0,8.672682E0,1.3171387E-1,2.8828049E0,0E0,0E0,5.8082805E0,5.0814805E0,4.7455072E0,4.2212505E0,6.5249825E0,4.388137E0,1.1805887E0,0E0,0E0,8.225074E-1,0E0,0E0,7.3908453E0,9.997154E0,4.201173E0,0E0,0E0,4.2902055E0,6.97439E0,9.985976E0,3.9746785E0,1.4066768E0,0E0,0E0,0E0,0E0,0E0,0E0,0E0,0E0,0E0,0E0,0E0,0E0,0E0,0E0,0E0,0E0,0E0,0E0,0E0,0E0],"parents":[2147483647,0,0,1,1,2,2,3,3,4,4,5,5,6,6,8,8,10,10,11,11,12,12,13,13,14,14,17,17,18,18,19,19,20,20,21,21,22,22,23,23,26,26,29,29,30,30,31,31,34,34,35,35,36,36,37,37,38,38],"right_children":[2,4,6,8,10,12,14,-1,16,-1,18,20,22,24,26,-1,-1,28,30,32,34,36,38,40,-1,-1,42,-1,-1,44,46,48,-1,-1,50,52,54,56,58,-1,-1,-1,-1,-1,-1,-1,-1,-1,-1,-1,-1,-1,-1,-1,-1,-1,-1,-1,-1],"split_conditions":[2.308E-1,2E0,7E0,1.818E-1,1E0,1E-45,8E0,-7.183053E-2,4E0,-6.188941E-2,2E0,3.79E1,4E0,4E0,3E0,-4.5490164E-2,2.7676877E-3,3.6E1,4E0,2.1E1,6.84E1,3E0,5E0,6E0,7.100438E-2,5.4155704E-2,6E0,-2.0014713E-2,5.186632E-2,8E0,4E0,4.167E-1,-2.5684262E-2,5.708006E-2,8.43E1,1E-45,7E0,1.1E1,3E0,5.429362E-2,1.462553E-2,1.6216135E-2,-1.5261727E-2,-3.641061E-2,1.9928649E-2,-3.637625E-2,4.1626465E-2,2.7497828E-2,-2.321835E-2,-2.2812832E-2,4.1767247E-2,-3.272636E-2,2.7787147E-2,-4.9826432E-2,2.891083E-2,-4.0595457E-2,2.4816789E-2,6.1405238E-2,1.3451687E-2],"split_indices":[15,12,8,15,14,4,0,0,7,0,2,10,3,6,14,0,0,10,3,10,10,6,6,7,0,0,7,0,0,8,6,15,0,0,10,4,2,0,12,0,0,0,0,0,0,0,0,0,0,0,0,0,0,0,0,0,0,0,0],"split_type":[0,0,0,0,0,1,0,0,0,0,0,0,0,0,0,0,0,0,0,0,0,0,0,0,0,0,0,0,0,0,0,0,0,0,0,1,0,0,0,0,0,0,0,0,0,0,0,0,0,0,0,0,0,0,0,0,0,0,0],"sum_hessian":[2.3167143E2,8.756768E1,1.4410374E2,2.2060772E1,6.550691E1,1.17945305E2,2.6158442E1,1.0818898E1,1.1241875E1,4.6998067E0,6.0807102E1,5.9991627E1,5.795368E1,1.6658712E1,9.499729E0,5.0344005E0,6.207474E0,9.334671E0,5.147243E1,3.4632683E1,2.5358946E1,4.2208664E1,1.5745012E1,1.0886031E1,5.7726817E0,3.2076662E0,6.2920628E0,4.5906143E0,4.7440567E0,3.6788822E1,1.4683611E1,2.8474186E1,6.158497E0,1.704108E1,8.317865E0,1.7824419E1,2.4384245E1,7.3618217E0,8.383191E0,6.551636E0,4.3343945E0,3.156709E0,3.135354E0,3.0446491E1,6.3423295E0,6.290862E0,8.392749E0,2.4510609E1,3.9635773E0,3.9394732E0,4.378392E0,6.916486E0,1.0907934E1,2.0197262E1,4.186983E0,3.2076654E0,4.154156E0,4.9692273E0,3.413964E0],"tree_param":{"num_deleted":"0","num_feature":"16","num_nodes":"59","size_leaf_vector":"1"}},{"base_weights":[5.6464057E-2,5.8322334E-1,-1.8390155E-1,6.65357E-1,-1.8733464E-2,-6.315094E-1,-5.4282866E-2,7.746996E-1,-5.0913006E-2,-8.272039E-1,3.1028885E-2,-1.6912797E-1,6.16631E-1,8.343546E-1,-2.5394703E-3,-1.2520347E0,-3.947115E-1,-2.4637756E-1,6.566028E-2,5.6308433E-2,6.184276E-2,6.764529E-3,8.922234E-1,-2.350141E-2,-6.9549106E-2,3.0839935E-2,-7.99708E-1,5.8552075E-2,-4.4464996E-1,-4.574118E-2,4.6990436E-2,3.1003123E-2,5.7365775E-2,-5.668155E-2,1.0613376E-2,-1.2719803E-2,3.60868E-2,-9.246405E-3,-4.3252807E-2],"categories":[0,1,3,4,6,7,8,10,11,13,14,15,16,17,18,19,20,21,23,24,25,26,27,28,29,30,31,32,34,36,37,38,40,41,42,43,44,45,46,49,51,52,53,55,56,57,58,59,60,61,63,64,65,66,67,68,69,70,71,72,73,74,77,79],"categories_nodes":[0],"categories_segments":[0],"categories_sizes":[64],"default_left":[0,0,0,0,0,0,0,0,0,0,0,0,0,0,0,0,0,0,0,0,0,0,0,0,0,0,0,0,0,0,0,0,0,0,0,0,0,0,0],"id":12,"left_children":[1,3,5,7,-1,9,11,13,-1,15,-1,17,19,21,-1,23,25,27,-1,29,-1,-1,31,-1,-1,-1,33,35,37,-1,-1,-1,-1,-1,-1,-1,-1,-1,-1],"loss_changes":[3.10382E1,6.321863E0,9.653525E0,1.3872885E1,0E0,9.720996E0,1.02045965E1,3.444107E0,0E0,5.390379E0,0E0,1.3194744E1,6.5194426E0,2.3295593E0,0E0,9.0208435E-1,7.841034E0,6.6321297E0,0E0,1.0548101E1,0E0,0E0,3.136734E0,0E0,0E0,0E0,4.821144E0,9.255565E0,6.956834E0,0E0,0E0,0E0,0E0,0E0,0E0,0E0,0E0,0E0,0E0],"parents":[2147483647,0,0,1,1,2,2,3,3,5,5,6,6,7,7,9,9,11,11,12,12,13,13,15,15,16,16,17,17,19,19,22,22,26,26,27,27,28,28],"right_children":[2,4,6,8,-1,10,12,14,-1,16,-1,18,20,22,-1,24,26,28,-1,30,-1,-1,32,-1,-1,-1,34,36,38,-1,-1,-1,-1,-1,-1,-1,-1,-1,-1],"split_conditions":[1E-45,8E0,1.667E-1,7.6E1,-1.8733464E-2,8E0,7E0,8.81E1,-5.0913006E-2,4E0,3.1028885E-2,9.93E1,4E0,2.727E-1,-2.5394703E-3,1.87E1,5E0,3.1E1,6.566028E-2,2.667E-1,6.184276E-2,6.764529E-3,4.39E1,-2.350141E-2,-6.9549106E-2,3.0839935E-2,5.85E1,4E0,2.96E1,-4.574118E-2,4.6990436E-2,3.1003123E-2,5.7365775E-2,-5.668155E-2,1.0613376E-2,-1.2719803E-2,3.60868E-2,-9.246405E-3,-4.3252807E-2],"split_indices":[4,6,15,10,0,8,2,9,0,6,0,10,12,15,0,9,6,9,0,15,0,0,9,0,0,0,9,3,10,0,0,0,0,0,0,0,0,0,0],"split_type":[1,0,0,0,0,0,0,0,0,0,0,0,0,0,0,0,0,0,0,0,0,0,0,0,0,0,0,0,0,0,0,0,0,0,0,0,0,0,0],"sum_hessian":[2.4297627E2,7.5815926E1,1.6716035E2,7.020597E1,5.6099563E0,3.6493843E1,1.3066652E2,6.6487206E1,3.718762E0,3.1923567E1,4.5702753E0,1.123344E2,1.8332115E1,6.2109215E1,4.377995E0,1.5031857E1,1.689171E1,1.0762684E2,4.7075596E0,1.0288922E1,8.043193E0,5.135655E0,5.6973557E1,3.0377364E0,1.1994121E1,4.609425E0,1.2282285E1,4.2486217E1,6.514062E1,4.830576E0,5.4583464E0,2.9414078E1,2.755948E1,9.218909E0,3.0633752E0,2.9181467E1,1.3304751E1,4.13023E1,2.3838318E1],"tree_param":{"num_deleted":"0","num_feature":"16","num_nodes":"39","size_leaf_vector":"1"}},{"base_weights":[5.490478E-2,-3.6577553E-1,3.4011695E-1,-6.6278756E-1,-1.5493326E-1,6.358139E-2,6.157851E-1,9.566638E-3,-8.253134E-1,-7.0110016E-2,-7.396609E-3,-1.2208293E-1,4.7880414E-1,1.8483071E-1,7.807525E-1,-6.688435E-2,-6.0157835E-1,-3.8056302E-1,3.1010693E-1,-9.044252E-1,3.5305697E-2,9.948609E-1,4.6989646E-2,-4.02407E-2,4.3127033E-1,9.5886266E-1,2.5080705E-1,-8.274805E-1,-0E0,-1.3644195E-1,-6.669073E-2,-1.2261011E-2,6.5422976E-1,-7.2702184E-2,-0E0,-5.019299E-2,2.8348613E-1,6.926809E-2,1.1833927E-2,-4.151587E-2,4.3938902E-1,2.3447545E-1,4.9753822E-2,1.0440611E0,2.0730933E-2,-2.668245E-2,9.2796135E-1,-5.2774318E-2,7.4257636E-3,7.5602396E-3,-6.3612843E-3,2.0421019E-2,-2.8990183E-2,2.6155729E-2,-4.8134293E-2,6.2046214E-3,5.6511115E-2,-2.0378374E-2,2.6640473E-2,-0E0,5.3807672E-2,-2.0014698E-2,2.5911545E-2,7.042937E-2,3.901786E-2,5.8968544E-2,1.9417677E-2],"categories":[],"categories_nodes":[],"categories_segments":[],"categories_sizes":[],"default_left":[0,0,0,0,0,0,0,0,0,0,0,0,0,0,0,0,0,0,0,0,0,0,0,0,0,0,0,0,0,0,0,0,0,0,0,0,0,0,0,0,0,0,0,0,0,0,0,0,0,0,0,0,0,0,0,0,0,0,0,0,0,0,0,0,0,0,0],"id":13,"left_children":[1,3,5,7,9,11,13,-1,15,-1,17,19,21,23,25,-1,27,29,31,33,35,37,39,-1,41,43,45,47,49,51,-1,53,55,-1,-1,-1,57,-1,-1,-1,59,61,-1,63,-1,-1,65,-1,-1,-1,-1,-1,-1,-1,-1,-1,-1,-1,-1,-1,-1,-1,-1,-1,-1,-1,-1],"loss_changes":[2.8594555E1,5.8412447E0,1.0724234E1,5.6970654E0,1.0480543E1,5.6622095E0,4.79661E0,0E0,2.8332329E0,0E0,6.374027E0,6.341929E0,4.904517E0,5.4540977E0,4.43009E0,0E0,3.4396057E0,5.4513555E0,3.278499E0,4.4134884E0,1.12845955E1,2.5239086E0,4.975379E0,0E0,1.5987117E0,1.1600266E0,8.112196E0,4.331546E0,1.7093319E-1,5.320333E0,0E0,8.564004E0,3.3044448E0,0E0,0E0,0E0,6.348321E0,0E0,0E0,0E0,2.8847792E0,2.831087E0,0E0,1.7200623E0,0E0,0E0,4.8268032E-1,0E0,0E0,0E0,0E0,0E0,0E0,0E0,0E0,0E0,0E0,0E0,0E0,0E0,0E0,0E0,0E0,0E0,0E0,0E0,0E0],"parents":[2147483647,0,0,1,1,2,2,3,3,4,4,5,5,6,6,8,8,10,10,11,11,12,12,13,13,14,14,16,16,17,17,18,18,19,19,20,20,21,21,22,22,24,24,25,25,26,26,27,27,28,28,29,29,31,31,32,32,36,36,40,40,41,41,43,43,46,46],"right_children":[2,4,6,8,10,12,14,-1,16,-1,18,20,22,24,26,-1,28,30,32,34,36,38,40,-1,42,44,46,48,50,52,-1,54,56,-1,-1,-1,58,-1,-1,-1,60,62,-1,64,-1,-1,66,-1,-1,-1,-1,-1,-1,-1,-1,-1,-1,-1,-1,-1,-1,-1,-1,-1,-1,-1,-1],"split_conditions":[2.308E-1,1.667E-1,3.25E1,2E0,5E0,6E0,2E0,9.566638E-3,2E0,-7.0110016E-2,3E0,2.667E-1,3.01E1,4E0,6.63E1,-6.688435E-2,4E0,2.143E-1,1.875E-1,4.65E1,6E0,9E0,5E0,-4.02407E-2,3.889E-1,9E0,1.7E1,1.1E1,2.53E1,3.6E1,-6.669073E-2,5E0,5E0,-7.2702184E-2,-0E0,-5.019299E-2,2.62E1,6.926809E-2,1.1833927E-2,-4.151587E-2,4E0,4E0,4.9753822E-2,2.88E1,2.0730933E-2,-2.668245E-2,5E0,-5.2774318E-2,7.4257636E-3,7.5602396E-3,-6.3612843E-3,2.0421019E-2,-2.8990183E-2,2.6155729E-2,-4.8134293E-2,6.2046214E-3,5.6511115E-2,-2.0378374E-2,2.6640473E-2,-0E0,5.3807672E-2,-2.0014698E-2,2.5911545E-2,7.042937E-2,3.901786E-2,5.8968544E-2,1.9417677E-2],"split_indices":[15,15,10,2,1,2,12,0,12,0,12,15,9,0,10,0,3,15,15,9,1,0,0,0,15,7,1,0,9,9,0,7,7,0,0,0,9,0,0,0,3,2,0,9,0,0,0,0,0,0,0,0,0,0,0,0,0,0,0,0,0,0,0,0,0,0,0],"split_type":[0,0,0,0,0,0,0,0,0,0,0,0,0,0,0,0,0,0,0,0,0,0,0,0,0,0,0,0,0,0,0,0,0,0,0,0,0,0,0,0,0,0,0,0,0,0,0,0,0,0,0,0,0,0,0,0,0,0,0,0,0,0,0,0,0,0,0],"sum_hessian":[2.3630597E2,9.52224E1,1.4108357E2,3.8445988E1,5.6776405E1,7.122643E1,6.985714E1,6.019459E0,3.242653E1,5.0343556E0,5.174205E1,4.9540047E1,2.1686382E1,2.0093151E1,4.976399E1,8.20667E0,2.421986E1,2.3839499E1,2.7902554E1,7.608565E0,4.1931484E1,9.17999E0,1.2506393E1,3.4733667E0,1.6619783E1,3.6498943E1,1.3265043E1,1.7352772E1,6.8670874E0,1.9972673E1,3.8668256E0,1.4754544E1,1.3148009E1,4.418093E0,3.1904716E0,7.419058E0,3.4512424E1,5.4261494E0,3.7538402E0,3.4414122E0,9.064981E0,1.3500662E1,3.1191218E0,3.060568E1,5.8932633E0,6.1753716E0,7.089672E0,1.4083654E1,3.2691176E0,3.1050155E0,3.7620718E0,8.894804E0,1.1077868E1,9.65836E0,5.096184E0,6.916044E0,6.2319646E0,8.875706E0,2.5636719E1,5.8961477E0,3.1688333E0,3.9349487E0,9.565714E0,1.0865371E1,1.974031E1,3.9011526E0,3.1885195E0],"tree_param":{"num_deleted":"0","num_feature":"16","num_nodes":"67","size_leaf_vector":"1"}},{"base_weights":[-4.8282262E-2,3.2610974E-1,-3.0481747E-1,5.696269E-1,-1.5266934E-1,-7.103949E-1,-9.259369E-2,6.1214637E-2,4.22747E-1,-8.4937143E-1,2.8184026E-1,-9.963257E-2,-8.838692E-1,-6.3425815E-1,1.5570231E-1,1.2769851E-1,8.0535996E-1,-3.4832373E-1,-7.1949154E-2,7.5244325E-1,-1.901568E-1,3.1714952E-1,-3.9108146E-2,-1.0252634E0,6.2183277E-3,3.5205822E-2,-9.9310076E-1,6.832021E-1,-7.7727385E-2,7.3500556E-1,-2.6914763E-1,3.2130525E-1,1.113876E0,-4.6806578E-2,2.2076258E-2,6.1421074E-2,7.7633634E-3,-3.6495693E-2,1.5890656E-2,-6.466623E-3,3.763135E-2,-1.2678897E0,-3.1088284E-1,-1.1485637E0,-6.123959E-3,9.72502E-1,-1.0335603E-2,8.8764185E-1,-2.7432826E-1,1.6006957E-4,6.265613E-2,1.11038005E-2,-4.338589E-2,-1.1859118E-2,4.43712E-2,6.570809E-2,1.6276672E-2,-6.78178E-2,-2.451774E-2,3.5014372E-2,-5.001665E-2,-1.5025753E-2,-6.998622E-2,1.4614889E-2,6.316858E-2,5.486035E-2,2.0962937E-2,-2.1795057E-2,5.5087745E-2],"categories":[0,3,5,6,7,8,11,13,14,15,16,18,19,20,21,23,24,25,26,27,28,30,31,32,34,35,36,37,38,39,40,41,42,43,44,45,46,51,52,53,55,56,57,58,59,62,63,64,65,66,68,69,70,71,74,75,77,79,0,1,2,3,4,5,6,7,8,9,10,11,12,13,14,15,16,17,18,19,20,21,22,23,24,25,26,27,28,29,30,31,32,33,0,1,2,3,4,5,6,7,8,9,10,11,12,13,14,15,16,17,18,19,20,21,22,23,24,25,26,27,28,29,30,31,32,33,34,35,36,37,38,39,40,41,42,43,44,45,46,47,48,49,50,51,52,53,54,55],"categories_nodes":[0,31,45],"categories_segments":[0,58,92],"categories_sizes":[58,34,56],"default_left":[1,0,0,0,0,0,0,0,0,0,0,0,0,0,0,0,0,0,0,0,0,0,0,0,0,0,0,0,0,0,0,1,0,0,0,0,0,0,0,0,0,0,0,0,0,1,0,0,0,0,0,0,0,0,0,0,0,0,0,0,0,0,0,0,0,0,0,0,0],"id":14,"left_children":[1,3,5,7,9,11,13,-1,15,17,19,21,23,25,27,29,31,33,-1,35,37,39,-1,41,-1,-1,43,45,47,49,51,53,55,-1,-1,-1,-1,-1,-1,-1,-1,57,59,61,-1,63,-1,65,67,-1,-1,-1,-1,-1,-1,-1,-1,-1,-1,-1,-1,-1,-1,-1,-1,-1,-1,-1,-1],"loss_changes":[2.2002314E1,1.0978434E1,1.156097E1,5.282772E0,9.990626E0,4.7308674E0,1.2331971E1,0E0,5.710099E0,3.0537071E0,4.727478E0,3.5718033E0,5.33403E0,1.4560412E1,7.8465815E0,7.6856785E0,2.8502321E0,4.2900133E0,0E0,2.659944E0,3.2535315E0,1.6710663E0,0E0,4.9374123E0,0E0,0E0,2.8703766E0,5.2976484E0,8.590345E0,4.636337E0,5.933794E0,3.521886E0,1.4885426E0,0E0,0E0,0E0,0E0,0E0,0E0,0E0,0E0,7.4689865E-1,7.3247194E0,3.5533714E0,0E0,2.4380245E0,0E0,1.388216E-1,8.786063E0,0E0,0E0,0E0,0E0,0E0,0E0,0E0,0E0,0E0,0E0,0E0,0E0,0E0,0E0,0E0,0E0,0E0,0E0,0E0,0E0],"parents":[2147483647,0,0,1,1,2,2,3,3,4,4,5,5,6,6,8,8,9,9,10,10,11,11,12,12,13,13,14,14,15,15,16,16,17,17,19,19,20,20,21,21,23,23,26,26,27,27,28,28,29,29,30,30,31,31,32,32,41,41,42,42,43,43,45,45,47,47,48,48],"right_children":[2,4,6,8,10,12,14,-1,16,18,20,22,24,26,28,30,32,34,-1,36,38,40,-1,42,-1,-1,44,46,48,50,52,54,56,-1,-1,-1,-1,-1,-1,-1,-1,58,60,62,-1,64,-1,66,68,-1,-1,-1,-1,-1,-1,-1,-1,-1,-1,-1,-1,-1,-1,-1,-1,-1,-1,-1,-1],"split_conditions":[1E-45,9E0,8.4E0,2E0,3.158E-1,4E0,1.765E-1,6.1214637E-2,4E0,5E0,6E0,5.37E1,7E0,2E0,2E0,2E0,6E0,3E0,-7.1949154E-2,2.97E1,1.1E1,2.9E1,-3.9108146E-2,6.42E1,6.2183277E-3,3.5205822E-2,6E0,1.26E1,1.36E1,5E0,5E0,1E-45,5.05E1,-4.6806578E-2,2.2076258E-2,6.1421074E-2,7.7633634E-3,-3.6495693E-2,1.5890656E-2,-6.466623E-3,3.763135E-2,6E0,1.765E-1,2.04E1,-6.123959E-3,1E-45,-1.0335603E-2,2.105E-1,9.67E1,1.6006957E-4,6.265613E-2,1.11038005E-2,-4.338589E-2,-1.1859118E-2,4.43712E-2,6.570809E-2,1.6276672E-2,-6.78178E-2,-2.451774E-2,3.5014372E-2,-5.001665E-2,-1.5025753E-2,-6.998622E-2,1.4614889E-2,6.316858E-2,5.486035E-2,2.0962937E-2,-2.1795057E-2,5.5087745E-2],"split_indices":[4,0,10,2,15,0,15,0,12,6,14,9,12,2,6,13,0,6,0,9,0,9,0,9,0,0,12,11,10,6,2,4,9,0,0,0,0,0,0,0,0,13,15,10,0,4,0,15,10,0,0,0,0,0,0,0,0,0,0,0,0,0,0,0,0,0,0,0,0],"split_type":[1,0,0,0,0,0,0,0,0,0,0,0,0,0,0,0,0,0,0,0,0,0,0,0,0,0,0,0,0,0,0,1,0,0,0,0,0,0,0,0,0,0,0,0,0,1,0,0,0,0,0,0,0,0,0,0,0,0,0,0,0,0,0,0,0,0,0,0,0],"sum_hessian":[2.270712E2,9.205846E1,1.3501274E2,6.1034256E1,3.1024199E1,4.5410633E1,8.960211E1,9.715346E0,5.1318913E1,1.1638362E1,1.9385838E1,1.0520655E1,3.4889977E1,2.7801245E1,6.1800873E1,2.9875673E1,2.1443237E1,7.24337E0,4.394992E0,9.5158205E0,9.870017E0,6.7733674E0,3.7472873E0,3.0670994E1,4.218983E0,5.615661E0,2.2185583E1,1.8498936E1,4.3301937E1,1.1569835E1,1.830584E1,9.267822E0,1.2175415E1,4.1192303E0,3.1241398E0,4.613851E0,4.901969E0,4.6688957E0,5.2011213E0,3.5781622E0,3.1952052E0,2.2212227E1,8.458769E0,1.845589E1,3.7296927E0,1.3975306E1,4.5236297E0,6.6457453E0,3.665619E1,5.293011E0,6.2768235E0,1.0308209E1,7.997629E0,4.868925E0,4.3988967E0,9.075785E0,3.0996308E0,1.915928E1,3.052946E0,3.3641026E0,5.094666E0,4.809883E0,1.3646008E1,4.889595E0,9.085711E0,3.5163908E0,3.1293545E0,3.3480927E1,3.1752646E0],"tree_param":{"num_deleted":"0","num_feature":"16","num_nodes":"69","size_leaf_vector":"1"}},{"base_weights":[5.275932E-2,4.7089165E-1,-2.3845017E-1,3.62421E-1,9.6175194E-1,-6.769971E-1,-5.8575355E-2,4.2560616E-1,-2.5178028E-2,3.9785638E-1,6.259123E-2,2.201425E-1,-8.831254E-1,2.2001892E-1,-2.9949263E-1,2.8066415E-1,9.3399507E-1,5.090205E-2,-1.4555975E-2,-6.9360295E-3,2.935656E-2,-1.0024589E0,7.474815E-3,-3.8451388E-1,4.871682E-1,-5.477884E-1,7.582817E-1,3.9309424E-1,-3.671951E-2,1.1897341E0,1.2339849E-2,-2.9619187E-1,-1.2932007E0,-9.217188E-1,1.852983E-2,-3.0838293E-3,9.7213733E-1,-8.3505476E-1,-1.5006791E-3,4.3458035E-3,5.763135E-2,-1.4131553E-3,3.029356E-2,7.638814E-2,2.8510317E-2,-4.3367077E-2,3.2465745E-2,-2.6071904E-2,-7.0835926E-2,-5.006393E-3,-7.1953826E-2,-2.6240153E-2,1.7540269E-2,6.319053E-2,1.7984875E-2,-6.102514E-2,-2.152795E-2,2.0145059E-2,-4.4701878E-2],"categories":[0,1,3,4,6,7,8,11,13,14,15,16,18,19,20,21,23,24,25,26,27,28,29,30,31,32,36,37,38,40,41,42,43,44,45,46,51,52,53,56,57,58,59,60,61,63,64,65,66,68,69,70,71,73,74,75,77,79,0,1,2,3,4,5,6,7,8,9,10,11,12,13,14,15,16,17,18,19,20,21,22,23,24,25,26,0,1,2,3,4,5,6,7,8,9,10,11,12,13,14,15,16,17,18,19,20,21,22,23,24,25,26,27,28,29,30,31,32,33,34,35,36,37,38,39,40,41,42,43,44,45,46,47,48,49,50,51,52,53,54,55,56,57,58,59,60,61,62,63,64,65,66,67,68,69,70],"categories_nodes":[0,24,32],"categories_segments":[0,58,85],"categories_sizes":[58,27,71],"default_left":[1,0,0,0,0,0,0,0,0,0,0,0,0,0,0,0,0,0,0,0,0,0,0,0,1,0,0,0,0,0,0,0,0,0,0,0,0,0,0,0,0,0,0,0,0,0,0,0,0,0,0,0,0,0,0,0,0,0,0],"id":15,"left_children":[1,3,5,7,9,11,13,15,-1,17,-1,19,21,23,25,27,29,-1,-1,-1,-1,31,-1,33,35,37,39,41,-1,43,-1,45,47,49,-1,51,53,55,57,-1,-1,-1,-1,-1,-1,-1,-1,-1,-1,-1,-1,-1,-1,-1,-1,-1,-1,-1,-1],"loss_changes":[2.888632E1,4.7056255E0,1.0907347E1,4.6688976E0,2.094575E0,7.7277966E0,6.8076653E0,5.265028E0,0E0,3.4923513E0,0E0,1.2133254E0,4.317013E0,7.773553E0,1.4686721E1,7.242671E0,2.4491014E0,0E0,0E0,0E0,0E0,5.599779E0,0E0,6.408776E0,7.96704E0,6.9345455E0,2.605565E0,5.083683E0,0E0,1.3486557E0,0E0,6.049796E0,1.0493279E0,3.537745E0,0E0,3.4046922E0,2.373331E0,3.86092E0,6.3782206E0,0E0,0E0,0E0,0E0,0E0,0E0,0E0,0E0,0E0,0E0,0E0,0E0,0E0,0E0,0E0,0E0,0E0,0E0,0E0,0E0],"parents":[2147483647,0,0,1,1,2,2,3,3,4,4,5,5,6,6,7,7,9,9,11,11,12,12,13,13,14,14,15,15,16,16,21,21,23,23,24,24,25,25,26,26,27,27,29,29,31,31,32,32,33,33,35,35,36,36,37,37,38,38],"right_children":[2,4,6,8,10,12,14,16,-1,18,-1,20,22,24,26,28,30,-1,-1,-1,-1,32,-1,34,36,38,40,42,-1,44,-1,46,48,50,-1,52,54,56,58,-1,-1,-1,-1,-1,-1,-1,-1,-1,-1,-1,-1,-1,-1,-1,-1,-1,-1,-1,-1],"split_conditions":[1E-45,7E0,1.765E-1,8.81E1,1.3E1,2E0,3.48E1,6.1E1,-2.5178028E-2,3E0,6.259123E-2,5E0,4.03E1,1.59E1,7E0,5.37E1,5E0,5.090205E-2,-1.4555975E-2,-6.9360295E-3,2.935656E-2,9E0,7.474815E-3,5E0,1E-45,2.1E1,6.83E1,2E0,-3.671951E-2,3E0,1.2339849E-2,6.42E1,1E-45,2.105E-1,1.852983E-2,3E0,3E0,3E0,4E0,4.3458035E-3,5.763135E-2,-1.4131553E-3,3.029356E-2,7.638814E-2,2.8510317E-2,-4.3367077E-2,3.2465745E-2,-2.6071904E-2,-7.0835926E-2,-5.006393E-3,-7.1953826E-2,-2.6240153E-2,1.7540269E-2,6.319053E-2,1.7984875E-2,-6.102514E-2,-2.152795E-2,2.0145059E-2,-4.4701878E-2],"split_indices":[4,8,15,9,1,2,9,9,0,3,0,7,11,9,8,9,2,0,0,0,0,1,0,2,4,1,9,7,0,3,0,9,4,15,0,3,6,3,6,0,0,0,0,0,0,0,0,0,0,0,0,0,0,0,0,0,0,0,0],"split_type":[1,0,0,0,0,0,0,0,0,0,0,0,0,0,0,0,0,0,0,0,0,0,0,0,1,0,0,0,0,0,0,0,1,0,0,0,0,0,0,0,0,0,0,0,0,0,0,0,0,0,0,0,0,0,0,0,0,0,0],"sum_hessian":[2.3511879E2,9.641211E1,1.3870668E2,8.055342E1,1.5858687E1,3.9378815E1,9.9327866E1,7.56572E1,4.896222E0,6.309487E0,9.549201E0,7.2539706E0,3.2124844E1,4.590985E1,5.3418015E1,6.0233387E1,1.5423814E1,3.145542E0,3.1639452E0,3.8443017E0,3.409669E0,2.8909956E1,3.214888E0,1.3820886E1,3.2088966E1,4.3729805E1,9.688209E0,5.4867382E1,5.3660035E0,1.0601639E1,4.822175E0,9.119545E0,1.9790411E1,8.024116E0,5.7967706E0,1.6349155E1,1.5739809E1,2.8192877E1,1.5536929E1,4.130351E0,5.5578575E0,1.8543434E1,3.6323948E1,5.806212E0,4.795427E0,5.802736E0,3.3168092E0,3.562485E0,1.6227926E1,3.6363032E0,4.3878126E0,6.526748E0,9.822408E0,9.830977E0,5.9088316E0,1.3276759E1,1.4916118E1,1.0992746E1,4.5441833E0],"tree_param":{"num_deleted":"0","num_feature":"16","num_nodes":"59","size_leaf_vector":"1"}},{"base_weights":[-7.2264016E-2,-3.94733E-1,1.6658778E-1,-6.3735646E-1,-1.623541E-1,5.642848E-1,-8.7537915E-2,-9.9746513E-1,-3.815609E-1,4.7473315E-2,-3.3271635E-1,-2.799037E-2,7.0140946E-1,-2.7268583E-1,7.2155935E-1,-6.934648E-2,-3.8870555E-1,3.983045E-2,-6.897849E-1,-4.9830678E-1,4.5689684E-1,8.909226E-1,-2.8131306E-2,-1.1441902E0,-8.9025356E-2,4.4484163E-4,5.6066174E-2,3.5216862E-3,-3.540417E-2,-3.3630133E-1,-6.714627E-2,-7.841899E-1,-4.5437445E-3,-3.4812223E-3,4.3876227E-2,5.183259E-1,1.046659E0,-2.8406186E-2,4.0621687E-2,-7.4958116E-2,-8.218872E-3,1.3480093E-2,-5.4473866E-2,-6.1591266E-4,-5.858041E-2,-2.364129E-2,-6.631618E-2,-3.6215898E-2,2.8675979E-2,5.2211704E-3,5.7244577E-2,3.434014E-2,6.0014393E-2,-1.2826298E-2,2.6204545E-2],"categories":[],"categories_nodes":[],"categories_segments":[],"categories_sizes":[],"default_left":[0,0,0,0,0,0,0,0,0,0,0,0,0,0,0,0,0,0,0,0,0,0,0,0,0,0,0,0,0,0,0,0,0,0,0,0,0,0,0,0,0,0,0,0,0,0,0,0,0,0,0,0,0,0,0],"id":16,"left_children":[1,3,5,7,9,11,13,15,17,-1,19,-1,21,23,25,-1,27,-1,29,31,33,35,37,39,41,-1,-1,-1,-1,43,-1,45,47,-1,-1,49,51,-1,-1,-1,-1,53,-1,-1,-1,-1,-1,-1,-1,-1,-1,-1,-1,-1,-1],"loss_changes":[1.7169714E1,5.163763E0,1.3026052E1,3.7045403E0,9.724035E0,8.138929E0,1.1951032E1,3.6122665E0,1.0919912E1,0E0,6.0073285E0,0E0,6.364998E0,1.0166527E1,4.1052165E0,0E0,1.3766837E0,0E0,4.75113E0,5.1541224E0,1.9301119E0,1.3925304E0,5.0612774E0,3.455289E0,5.742342E0,0E0,0E0,0E0,0E0,4.3398075E0,0E0,3.1361666E0,6.5621643E0,0E0,0E0,3.073757E0,3.275318E-1,0E0,0E0,0E0,0E0,7.138162E0,0E0,0E0,0E0,0E0,0E0,0E0,0E0,0E0,0E0,0E0,0E0,0E0,0E0],"parents":[2147483647,0,0,1,1,2,2,3,3,4,4,5,5,6,6,7,7,8,8,10,10,12,12,13,13,14,14,16,16,18,18,19,19,20,20,21,21,22,22,23,23,24,24,29,29,31,31,32,32,35,35,36,36,41,41],"right_children":[2,4,6,8,10,12,14,16,18,-1,20,-1,22,24,26,-1,28,-1,30,32,34,36,38,40,42,-1,-1,-1,-1,44,-1,46,48,-1,-1,50,52,-1,-1,-1,-1,54,-1,-1,-1,-1,-1,-1,-1,-1,-1,-1,-1,-1,-1],"split_conditions":[2.5E-1,3E0,3.1E1,9.8E0,1.28E1,8.8E0,7E0,5.15E1,1.28E1,4.7473315E-2,6E0,-2.799037E-2,3.636E-1,2.727E-1,2.2E1,-6.934648E-2,6E0,3.983045E-2,7E0,1.875E-1,5.34E1,8.4E0,2.58E1,4E0,7E0,4.4484163E-4,5.6066174E-2,3.5216862E-3,-3.540417E-2,7.38E1,-6.714627E-2,6E0,3E0,-3.4812223E-3,4.3876227E-2,5E0,2.941E-1,-2.8406186E-2,4.0621687E-2,-7.4958116E-2,-8.218872E-3,4E-1,-5.4473866E-2,-6.1591266E-4,-5.858041E-2,-2.364129E-2,-6.631618E-2,-3.6215898E-2,2.8675979E-2,5.2211704E-3,5.7244577E-2,3.434014E-2,6.0014393E-2,-1.2826298E-2,2.6204545E-2],"split_indices":[15,12,9,10,9,9,8,9,10,0,8,0,15,15,11,0,0,0,7,15,9,10,9,3,2,0,0,0,0,10,0,7,3,0,0,13,15,0,0,0,0,15,0,0,0,0,0,0,0,0,0,0,0,0,0],"split_type":[0,0,0,0,0,0,0,0,0,0,0,0,0,0,0,0,0,0,0,0,0,0,0,0,0,0,0,0,0,0,0,0,0,0,0,0,0,0,0,0,0,0,0,0,0,0,0,0,0,0,0,0,0,0,0],"sum_hessian":[2.2076877E2,9.3841415E1,1.2692736E2,4.4845654E1,4.899576E1,4.9162674E1,7.776469E1,1.7258606E1,2.7587046E1,5.8243837E0,4.317138E1,4.9307413E0,4.423193E1,6.3923477E1,1.3841211E1,9.645301E0,7.6133056E0,5.324702E0,2.2262344E1,3.609701E1,7.0743666E0,3.5044315E1,9.187615E0,1.0121344E1,5.380213E1,5.431262E0,8.409949E0,3.3145907E0,4.2987146E0,1.5527028E1,6.735316E0,2.2360071E1,1.373694E1,3.4067264E0,3.66764E0,1.1795094E1,2.3249222E1,5.8637395E0,3.3238757E0,6.9656706E0,3.155673E0,4.9606106E1,4.1960278E0,1.2005157E1,3.5218706E0,1.5509247E1,6.850824E0,6.082862E0,7.654078E0,7.9016247E0,3.8934686E0,8.787366E0,1.4461856E1,3.2645332E1,1.6960772E1],"tree_param":{"num_deleted":"0","num_feature":"16","num_nodes":"55","size_leaf_vector":"1"}},{"base_weights":[6.0580034E-2,5.263807E-1,-9.880461E-2,7.356636E-1,-0E0,-2.4875262E-1,2.9871914E-1,8.094558E-1,-2.5677006E-4,-3.9443776E-2,4.5513195E-1,-3.6285642E-1,2.4613832E-1,5.2768314E-1,-4.9719933E-1,9.302466E-1,5.262266E-3,1.1192118E-2,4.6640873E-2,-2.3993464E-1,-9.9547595E-1,5.760067E-1,-5.321525E-1,-3.2240577E-2,7.452943E-1,5.17464E-3,-6.662184E-2,1.0114077E0,2.3361316E-2,1.6912984E-2,-1.4903276E-2,-4.071464E-1,2.0331366E-1,-7.2983086E-2,2.7202729E-3,-8.064677E-2,1.0633398E0,-4.905252E-4,-4.3801576E-2,8.92819E-1,4.4467655E-4,-1.6770555E-2,2.1222347E-2,3.091234E-2,5.5306237E-2,1.2989797E-2,-2.746985E-2,2.8767375E-2,-1.7436562E-2,3.7764177E-2,-4.4147402E-2,6.3423686E-2,2.1803727E-2,2.6294729E-2,5.7370692E-2],"categories":[0,1,2,3,4,5,6,7,8,11,12,13,14,15,16,18,19,20,21,22,23,24,25,26,27,28,29,30,31,32,34,36,37,38,40,41,42,43,44,45,46,47,48,49,51,52,53,55,56,57,58,59,61,62,63,64,66,68,69,70,71,72,73,74,75,77,79,80,0,1,2,3,4,5,6,7,8,9,10,11,12,13,14,0,1,2,3,4,5,6,7,8,9,10,11,12,13,14,15,16,17,18,19,20,21,22,23,24,25,26,27,28,29,30,31,32,33,34,35,36,37,38,39,40,41,0,1,2,3,4,5,6,7,8,9,10,11,12,13,14,15,16,17,18,19,20,21,22,23,24,25,26,27,28,29,30,31,32,33,34,35,36,37,38],"categories_nodes":[0,19,36,39],"categories_segments":[0,68,83,125],"categories_sizes":[68,15,42,39],"default_left":[0,0,0,0,0,0,0,0,0,0,0,0,0,0,0,0,0,0,0,1,0,0,0,0,0,0,0,0,0,0,0,0,0,0,0,0,1,0,0,1,0,0,0,0,0,0,0,0,0,0,0,0,0,0,0],"id":17,"left_children":[1,3,5,7,9,11,13,15,-1,-1,17,19,21,23,25,27,-1,29,-1,31,33,35,37,-1,39,41,-1,43,-1,-1,-1,45,47,-1,-1,49,51,-1,-1,53,-1,-1,-1,-1,-1,-1,-1,-1,-1,-1,-1,-1,-1,-1,-1],"loss_changes":[1.7340727E1,6.626667E0,1.0426549E1,2.4202461E0,6.785307E0,7.2665563E0,8.987642E0,3.1147003E0,0E0,0E0,2.409397E0,7.700597E0,6.5256634E0,1.0123004E1,4.8013678E0,6.207619E-1,0E0,8.397582E-1,0E0,6.6452417E0,8.221718E0,5.807129E0,1.2742941E0,0E0,3.4193573E0,1.2734742E0,0E0,1.513958E-1,0E0,0E0,0E0,6.299261E0,5.292199E0,0E0,0E0,6.26467E0,5.9454536E-1,0E0,0E0,1.7376041E0,0E0,0E0,0E0,0E0,0E0,0E0,0E0,0E0,0E0,0E0,0E0,0E0,0E0,0E0,0E0],"parents":[2147483647,0,0,1,1,2,2,3,3,4,4,5,5,6,6,7,7,10,10,11,11,12,12,13,13,14,14,15,15,17,17,19,19,20,20,21,21,22,22,24,24,25,25,27,27,31,31,32,32,35,35,36,36,39,39],"right_children":[2,4,6,8,10,12,14,16,-1,-1,18,20,22,24,26,28,-1,30,-1,32,34,36,38,-1,40,42,-1,44,-1,-1,-1,46,48,-1,-1,50,52,-1,-1,54,-1,-1,-1,-1,-1,-1,-1,-1,-1,-1,-1,-1,-1,-1,-1],"split_conditions":[1E-45,9E0,5E0,2.6E1,2E0,6E0,7E0,6.61E1,-2.5677006E-4,-3.9443776E-2,7E0,6.83E1,9E0,6E0,7E0,8E0,5.262266E-3,3.52E1,4.6640873E-2,1E-45,9.18E1,2E0,2.04E1,-3.2240577E-2,1E1,9E0,-6.662184E-2,2E0,2.3361316E-2,1.6912984E-2,-1.4903276E-2,2E0,3.98E1,-7.2983086E-2,2.7202729E-3,7E0,1E-45,-4.905252E-4,-4.3801576E-2,1E-45,4.4467655E-4,-1.6770555E-2,2.1222347E-2,3.091234E-2,5.5306237E-2,1.2989797E-2,-2.746985E-2,2.8767375E-2,-1.7436562E-2,3.7764177E-2,-4.4147402E-2,6.3423686E-2,2.1803727E-2,2.6294729E-2,5.7370692E-2],"split_indices":[4,0,12,1,5,8,7,9,0,0,14,9,8,1,0,0,0,10,0,4,9,12,10,0,0,7,0,3,0,0,0,2,9,0,0,0,4,0,0,4,0,0,0,0,0,0,0,0,0,0,0,0,0,0,0],"split_type":[1,0,0,0,0,0,0,0,0,0,0,0,0,0,0,0,0,0,0,1,0,0,0,0,0,0,0,0,0,0,0,0,0,0,0,0,1,0,0,1,0,0,0,0,0,0,0,0,0,0,0,0,0,0,0],"sum_hessian":[2.3129552E2,5.853938E1,1.7275615E2,4.1726532E1,1.6812847E1,1.2589406E2,4.686209E1,3.798508E1,3.7414477E0,5.9567924E0,1.0856055E1,1.02687035E2,2.3207022E1,3.675215E1,1.0109937E1,3.2028385E1,5.956697E0,6.2657323E0,4.590323E0,8.726773E1,1.54193E1,1.6571712E1,6.635309E0,5.374034E0,3.1378119E1,6.8586893E0,3.251248E0,2.6060066E1,5.9683194E0,3.1567564E0,3.1089761E0,6.3587086E1,2.3680647E1,1.0487419E1,4.931881E0,7.3275595E0,9.244153E0,3.157893E0,3.4774163E0,2.5851107E1,5.527012E0,3.763229E0,3.0954604E0,6.7256494E0,1.9334417E1,1.0909335E1,5.267775E1,1.4229825E1,9.450823E0,3.5562298E0,3.7713294E0,6.075604E0,3.1685488E0,1.2006142E1,1.3844965E1],"tree_param":{"num_deleted":"0","num_feature":"16","num_nodes":"55","size_leaf_vector":"1"}},{"base_weights":[7.3418275E-2,-4.2969784E-1,2.5965253E-1,2.8811452E-1,-5.857918E-1,-7.296631E-2,3.1530824E-1,-2.7641138E-2,6.7972785E-1,-1.5071867E-1,-9.300873E-1,-5.435628E-2,4.7126547E-1,5.326876E-2,8.336563E-4,-3.2494003E-1,3.911784E-2,-3.1296426E-1,-1.1778373E0,-2.2236264E-1,6.331182E-1,1.9689094E-1,6.8811786E-1,-5.95391E-2,-3.6775913E-2,-4.244808E-2,1.885936E-2,-1.2644356E0,-2.4081483E-2,-4.3298945E-1,2.2493842E-1,-1.2299509E-2,5.3833306E-2,-2.1644932E-1,5.746738E-1,8.674936E-1,3.7474898E-1,-1.7223665E-2,2.1795306E-2,-3.7520465E-2,-7.088741E-2,2.257563E-3,-3.773876E-2,3.9789986E-2,-1.9663638E-2,6.4580725E-3,-5.85149E-2,-1.1077352E-3,4.005679E-2,5.0001502E-2,2.2219637E-2,3.8717467E-2,-1.8385991E-2],"categories":[0,1,2,3,4,5,6,7,8,9,10,11,12,13,14,15,16,17,18,19,20,21,22,23,24,25,26,27,28,29,30,31,32,33,34,35,36,37,38,39,40,41,42,43,44,45,46,47,48,49,50,51,52,53,54,55,56,57,58,59,60,61,62,63,64,65,66,67,68,0,1,2,3,4,5,6,7,8,9,10,11,12,13,14,15,16,17,18,19,20,21,22,23,24,25,26,27,28,29,30,31,32,33,34,35,36,37,38,39,40,41,42,43,44,45,46,47,48,49,50,51,52,53,54,55,56,57,58,59,60,61,62,63,64,65,66,67,68,69,70,71,72,0,1,2,3,4,5,6,7,8,17,0,1,2,3,4,5,6,7,8,9,10,11,12,13,14,15,16,17,18,19,20,21,22,23,24,25,26,27,28,29,30,31,32,33,34,35,36,37,38,39,40,41,42,43,44,45,46,47,48,49,50,51,52,53,54,55,56,57,58,59,60,61],"categories_nodes":[10,17,19,29],"categories_segments":[0,69,142,152],"categories_sizes":[69,73,10,62],"default_left":[0,0,0,0,0,0,0,0,0,0,0,0,0,0,0,0,0,0,0,1,0,0,0,0,0,0,0,0,0,1,0,0,0,0,0,0,0,0,0,0,0,0,0,0,0,0,0,0,0,0,0,0,0],"id":18,"left_children":[1,3,5,7,9,-1,11,-1,13,15,17,19,21,-1,-1,23,-1,25,27,29,31,33,35,-1,37,-1,-1,39,-1,41,43,-1,-1,45,47,49,51,-1,-1,-1,-1,-1,-1,-1,-1,-1,-1,-1,-1,-1,-1,-1,-1],"loss_changes":[2.2402117E1,7.431262E0,1.7043135E1,4.36858E0,7.7605247E0,0E0,9.864347E0,0E0,2.117968E0,4.2628794E0,3.9964046E0,6.0049486E0,6.904381E0,0E0,0E0,5.2759967E0,0E0,4.042577E0,4.5775986E-1,4.069869E0,4.3188887E0,8.669479E0,3.278223E0,0E0,2.6840792E0,0E0,0E0,1.0384178E-1,0E0,4.568468E0,5.270648E0,0E0,0E0,9.031486E0,3.9978542E0,1.722044E0,8.070197E0,0E0,0E0,0E0,0E0,0E0,0E0,0E0,0E0,0E0,0E0,0E0,0E0,0E0,0E0,0E0,0E0],"parents":[2147483647,0,0,1,1,2,2,3,3,4,4,6,6,8,8,9,9,10,10,11,11,12,12,15,15,17,17,18,18,19,19,20,20,21,21,22,22,24,24,27,27,29,29,30,30,33,33,34,34,35,35,36,36],"right_children":[2,4,6,8,10,-1,12,-1,14,16,18,20,22,-1,-1,24,-1,26,28,30,32,34,36,-1,38,-1,-1,40,-1,42,44,-1,-1,46,48,50,52,-1,-1,-1,-1,-1,-1,-1,-1,-1,-1,-1,-1,-1,-1,-1,-1],"split_conditions":[2E-1,2E0,8.8E0,5.6E0,1.03E1,-7.296631E-2,2E0,-2.7641138E-2,3.23E1,8.4E0,1E-45,4E-1,2.48E1,5.326876E-2,8.336563E-4,7E0,3.911784E-2,1E-45,7E0,1E-45,3.88E1,3E0,5.95E1,-5.95391E-2,4E0,-4.244808E-2,1.885936E-2,2E0,-2.4081483E-2,1E-45,3.99E1,-1.2299509E-2,5.3833306E-2,2E1,2.941E-1,8.2E0,3E0,-1.7223665E-2,2.1795306E-2,-3.7520465E-2,-7.088741E-2,2.257563E-3,-3.773876E-2,3.9789986E-2,-1.9663638E-2,6.4580725E-3,-5.85149E-2,-1.1077352E-3,4.005679E-2,5.0001502E-2,2.2219637E-2,3.8717467E-2,-1.8385991E-2],"split_indices":[15,2,9,10,10,0,12,0,9,10,4,15,10,0,0,1,0,4,2,4,9,13,10,0,12,0,0,12,0,4,9,0,0,1,15,11,13,0,0,0,0,0,0,0,0,0,0,0,0,0,0,0,0],"split_type":[0,0,0,0,0,0,0,0,0,0,1,0,0,0,0,0,0,1,0,1,0,0,0,0,0,0,0,0,0,1,0,0,0,0,0,0,0,0,0,0,0,0,0,0,0,0,0,0,0,0,0,0,0],"sum_hessian":[2.3708063E2,6.3551235E1,1.7352939E2,1.1085792E1,5.2465446E1,4.59488E0,1.6893451E2,3.310318E0,7.7754736E0,2.39407E1,2.8524744E1,5.0127605E1,1.1880691E2,4.4371457E0,3.3383276E0,2.0813404E1,3.127297E0,8.935091E0,1.9589653E1,4.0943714E1,9.183893E0,5.3493206E1,6.53137E1,4.3284507E0,1.6484953E1,4.9812517E0,3.953839E0,1.6568905E1,3.0207493E0,2.8009876E1,1.2933837E1,3.1535435E0,6.0303497E0,2.562199E1,2.7871216E1,4.0209785E1,2.5103914E1,1.02775E1,6.207453E0,5.3105564E0,1.12583475E1,1.1488321E1,1.6521553E1,6.6591854E0,6.2746515E0,1.936512E1,6.25687E0,7.7932158E0,2.0078E1,2.9400234E1,1.0809549E1,1.6379913E1,8.724002E0],"tree_param":{"num_deleted":"0","num_feature":"16","num_nodes":"53","size_leaf_vector":"1"}},{"base_weights":[1.8399851E-2,4.4953203E-1,-1.8041527E-1,5.8192676E-1,1.432863E-1,-6.0932923E-2,-1.2089995E-1,3.4083796E-1,8.4463334E-1,-2.2704339E-1,5.7504606E-1,-2.3375303E-1,4.166514E-1,5.0783183E-2,1.1353267E-1,9.53501E-1,6.268572E-3,2.6859292E-1,-5.723946E-2,9.189873E-1,-9.738716E-3,1.02262884E-1,-3.82608E-1,7.6726025E-1,-3.7551767E-1,5.6172216E-1,-5.4312485E-1,6.364717E-1,5.8648687E-2,4.2001735E-2,-1.3226131E-2,6.89198E-2,1.023566E-2,3.1302127E-1,-4.557055E-1,-7.098365E-1,-1.3098486E-1,1.1327292E0,1.8818164E-1,2.6703527E-2,-5.1047623E-2,-1.6577408E-2,4.6328682E-2,9.2122145E-3,-4.94638E-2,5.751448E-3,4.2047594E-2,-7.928703E-3,2.6493287E-2,4.0579382E-3,-5.231185E-2,-4.346366E-2,3.7454247E-2,1.8538613E-4,-4.9280297E-2,2.1284673E-2,6.681847E-2,-1.8204268E-2,3.724451E-2],"categories":[0,1,3,6,7,8,11,13,14,15,16,17,18,19,20,21,23,24,25,26,27,28,29,30,31,32,34,35,36,37,38,40,41,42,43,44,45,46,49,50,51,52,53,56,57,58,59,60,62,63,64,66,67,68,69,70,71,72,73,74,75,77,79,80,0,1,2,3,4,5,7,8,9,10,11,12,13,14,15,16,17,18,19,20,21,22,23,24,25,26,27,28,29,30,31,32,33,34,35,36,37,38,39,40,41,42,43,44,45,46,47,48,49,50,51,52,53,54,55,56,57,58,59,60,61,62,0,1,2,3,4,5,6,7,8,9,10,11,12,13,14,15,16,17,18,19,20,21,22,0,1,2,3,4,5,6,7,8,9,10,11,12,13,14,15,16,17,18,19,20,21,22,23,24,25,26,27,28,29,34,38,50,0,1,2,3,4,5,6,7,8,9,10,11,12,13,14,15,16,17,18,19,20,21,22,23,24,25,26,27,28,29,30,31,32,33,34,35,36,37,0,1,2,3,4,5,6,7,8,9,10,11,12,13,14,15,16,17],"categories_nodes":[0,11,19,22,23,38],"categories_segments":[0,64,126,149,182,220],"categories_sizes":[64,62,23,33,38,18],"default_left":[0,0,0,0,0,0,0,0,0,0,0,1,0,0,0,0,0,0,0,1,0,0,1,1,0,0,0,0,0,0,0,0,0,0,0,0,0,0,1,0,0,0,0,0,0,0,0,0,0,0,0,0,0,0,0,0,0,0,0],"id":19,"left_children":[1,3,5,7,9,-1,11,13,15,17,19,21,23,-1,25,27,-1,29,-1,31,-1,33,35,37,39,41,43,45,-1,-1,-1,-1,-1,47,49,51,53,55,57,-1,-1,-1,-1,-1,-1,-1,-1,-1,-1,-1,-1,-1,-1,-1,-1,-1,-1,-1,-1],"loss_changes":[1.939901E1,2.7420664E0,9.270624E0,2.7189903E0,3.8633564E0,0E0,9.021253E0,4.006485E0,1.5531902E0,6.327425E0,3.186695E0,6.200412E0,7.488022E0,0E0,6.7487044E0,4.277668E-1,0E0,3.0848114E0,0E0,2.1607766E0,0E0,4.6238146E0,6.854145E0,3.5251532E0,5.580554E0,4.796161E0,3.2797673E0,9.102602E-1,0E0,0E0,0E0,0E0,0E0,3.0325568E0,3.592025E0,9.204742E0,5.819746E0,8.252897E-1,2.8861032E0,0E0,0E0,0E0,0E0,0E0,0E0,0E0,0E0,0E0,0E0,0E0,0E0,0E0,0E0,0E0,0E0,0E0,0E0,0E0,0E0],"parents":[2147483647,0,0,1,1,2,2,3,3,4,4,6,6,7,7,8,8,9,9,10,10,11,11,12,12,14,14,15,15,17,17,19,19,21,21,22,22,23,23,24,24,25,25,26,26,27,27,33,33,34,34,35,35,36,36,37,37,38,38],"right_children":[2,4,6,8,10,-1,12,14,16,18,20,22,24,-1,26,28,-1,30,-1,32,-1,34,36,38,40,42,44,46,-1,-1,-1,-1,-1,48,50,52,54,56,58,-1,-1,-1,-1,-1,-1,-1,-1,-1,-1,-1,-1,-1,-1,-1,-1,-1,-1,-1,-1],"split_conditions":[1E-45,9E0,7.14E-2,1.6E1,5.14E1,-6.0932923E-2,7E0,2.12E1,5.95E1,3.1E1,1.9E1,1E-45,9E0,5.0783183E-2,3.333E-1,5E0,6.268572E-3,2E0,-5.723946E-2,1E-45,-9.738716E-3,6E0,1E-45,1E-45,1.74E1,3E0,7E0,4.73E1,5.8648687E-2,4.2001735E-2,-1.3226131E-2,6.89198E-2,1.023566E-2,3E0,1.4E1,9.59E1,7.43E1,9.9E0,1E-45,2.6703527E-2,-5.1047623E-2,-1.6577408E-2,4.6328682E-2,9.2122145E-3,-4.94638E-2,5.751448E-3,4.2047594E-2,-7.928703E-3,2.6493287E-2,4.0579382E-3,-5.231185E-2,-4.346366E-2,3.7454247E-2,1.8538613E-4,-4.9280297E-2,2.1284673E-2,6.681847E-2,-1.8204268E-2,3.724451E-2],"split_indices":[4,0,15,1,9,0,8,9,10,9,1,4,8,0,15,0,0,6,0,4,0,2,4,4,10,2,1,9,0,0,0,0,0,7,1,9,9,11,4,0,0,0,0,0,0,0,0,0,0,0,0,0,0,0,0,0,0,0,0],"split_type":[1,0,0,0,0,0,0,0,0,0,0,1,0,0,0,0,0,0,0,1,0,0,1,1,0,0,0,0,0,0,0,0,0,0,0,0,0,0,1,0,0,0,0,0,0,0,0,0,0,0,0,0,0,0,0,0,0,0,0],"sum_hessian":[2.2405817E2,7.047484E1,1.5358333E2,4.834697E1,2.2127872E1,7.1795545E0,1.4640378E2,2.660725E1,2.1739717E1,1.2041851E1,1.0086021E1,1.2162178E2,2.4781992E1,5.719359E0,2.0887892E1,1.847816E1,3.261557E0,8.207625E0,3.8342254E0,6.9272084E0,3.1588135E0,3.722764E1,8.439414E1,1.728808E1,7.4939117E0,1.2590999E1,8.296893E0,9.340873E0,9.137288E0,3.7740855E0,4.43354E0,3.5646803E0,3.3625278E0,2.7469828E1,9.757812E0,3.5721252E1,4.867289E1,9.906866E0,7.381213E0,3.1177647E0,4.376147E0,3.5983384E0,8.9926605E0,3.2922952E0,5.004598E0,3.2090633E0,6.1318097E0,8.591819E0,1.887801E1,5.4742694E0,4.283542E0,3.2628223E1,3.0930278E0,4.2805225E1,5.867667E0,3.0161872E0,6.890679E0,3.7889094E0,3.592304E0],"tree_param":{"num_deleted":"0","num_feature":"16","num_nodes":"59","size_leaf_vector":"1"}},{"base_weights":[-4.4740265E-4,4.3142608E-1,-2.4805343E-1,5.377347E-3,5.3984535E-1,-5.8771217E-1,-9.632079E-2,6.902258E-1,-8.087663E-1,2.5502357E-1,7.454401E-1,-1.1430047E0,-2.0296998E-1,-2.7248773E-1,3.26079E-1,-1.502191E-2,6.3412726E-2,-1.07810935E-2,-5.5660654E-2,-3.1677403E-2,4.8367482E-1,7.3576584E-2,9.525464E-1,-4.7958064E-1,-7.327503E-2,-9.2506826E-1,1.0245069E-1,-4.524973E-1,5.5967915E-1,-1.7631115E-1,7.662742E-1,1.12976044E-1,9.3272626E-1,-2.2760829E-2,2.433239E-2,1.0406642E0,8.594903E-3,-0E0,-4.1362066E-2,-2.004886E-2,-5.6548513E-2,-9.36762E-2,3.607227E-2,2.091638E-1,-6.699422E-1,5.0226357E-2,1.6755275E-1,-8.2824785E-1,3.1122198E-2,1.0710148E0,7.6203956E-3,1.9319283E-2,-2.7843608E-2,6.342268E-2,1.85131E-2,3.2632977E-2,5.8488388E-2,-2.0635586E-2,3.9247807E-2,-2.9029716E-2,3.987577E-2,-1.9423168E-2,-6.60739E-2,3.864799E-2,-3.3713076E-2,-6.4106844E-2,-1.5960824E-3,6.862272E-2,2.1459607E-2],"categories":[0,2,3,5,7,8,11,13,14,15,16,17,18,19,20,21,22,23,24,25,26,27,28,29,30,31,32,34,36,37,38,40,41,42,43,44,45,46,51,52,53,54,56,57,58,59,60,63,64,66,68,69,70,71,72,73,74,76,77,79,80,0,1,2,3,4,5,6,7,8,9,10,11,12,13,14,15,16,17,18,19,20,21,22,23,24,25,26,27,28,29,30,31,32,33,34,35,36,37,38,39,40,41,42,43,44,45,46,47,48,49,50,51,52,0,1,2,3,4,5,6,7,8,9,10,11,12,13,14,15,16,17,18,19,20,21,22,23,24,25,26,27,28,29,30,31,32,33,34,35,36,37,38,39,40,41,42,43,44,45,46,47,48,0,1,2,3,4,5,6],"categories_nodes":[0,11,21,22],"categories_segments":[0,61,114,163],"categories_sizes":[61,53,49,7],"default_left":[1,0,0,0,0,0,0,0,0,0,0,1,0,0,0,0,0,0,0,0,0,1,1,0,0,0,0,0,0,0,0,0,0,0,0,0,0,0,0,0,0,0,0,0,0,0,0,0,0,0,0,0,0,0,0,0,0,0,0,0,0,0,0,0,0,0,0,0,0],"id":20,"left_children":[1,3,5,7,9,11,13,15,17,19,21,23,25,27,29,-1,-1,-1,-1,-1,31,33,35,37,-1,39,41,43,45,47,49,51,53,-1,-1,55,-1,-1,-1,-1,-1,57,-1,59,61,-1,63,65,-1,67,-1,-1,-1,-1,-1,-1,-1,-1,-1,-1,-1,-1,-1,-1,-1,-1,-1,-1,-1],"loss_changes":[2.4822952E1,3.8460665E0,7.492052E0,1.0771889E1,3.6429691E0,9.298147E0,7.789659E0,6.5288095E0,1.2112484E0,6.362606E0,5.154503E0,2.9950333E0,6.362131E0,1.1296474E1,6.998271E0,0E0,0E0,0E0,0E0,0E0,3.855527E0,2.456639E0,1.6993065E0,1.2081505E0,0E0,3.141284E-1,2.6205077E0,9.008686E0,2.0644522E0,8.386462E0,2.8369675E0,2.8790264E0,1.4029322E0,0E0,0E0,3.4695435E-1,0E0,0E0,0E0,0E0,0E0,4.866731E0,0E0,7.8336287E0,7.844322E0,0E0,4.852722E0,3.007854E0,0E0,1.3356895E0,0E0,0E0,0E0,0E0,0E0,0E0,0E0,0E0,0E0,0E0,0E0,0E0,0E0,0E0,0E0,0E0,0E0,0E0,0E0],"parents":[2147483647,0,0,1,1,2,2,3,3,4,4,5,5,6,6,7,7,8,8,9,9,10,10,11,11,12,12,13,13,14,14,20,20,21,21,22,22,23,23,25,25,26,26,27,27,28,28,29,29,30,30,31,31,32,32,35,35,41,41,43,43,44,44,46,46,47,47,49,49],"right_children":[2,4,6,8,10,12,14,16,18,20,22,24,26,28,30,-1,-1,-1,-1,-1,32,34,36,38,-1,40,42,44,46,48,50,52,54,-1,-1,56,-1,-1,-1,-1,-1,58,-1,60,62,-1,64,66,-1,68,-1,-1,-1,-1,-1,-1,-1,-1,-1,-1,-1,-1,-1,-1,-1,-1,-1,-1,-1],"split_conditions":[1E-45,9E0,2E0,3E0,3E0,4E0,4E0,4E0,5E0,3.077E-1,2E0,1E-45,1.818E-1,7E0,4E0,-1.502191E-2,6.3412726E-2,-1.07810935E-2,-5.5660654E-2,-3.1677403E-2,2.1E1,1E-45,1E-45,1.5E1,-7.327503E-2,6E0,2.2E1,2E0,2E0,2.5E-1,4E0,4E0,3.636E-1,-2.2760829E-2,2.433239E-2,3E0,8.594903E-3,-0E0,-4.1362066E-2,-2.004886E-2,-5.6548513E-2,3.53E1,3.607227E-2,2E-1,7E0,5.0226357E-2,2E0,5E0,3.1122198E-2,3E0,7.6203956E-3,1.9319283E-2,-2.7843608E-2,6.342268E-2,1.85131E-2,3.2632977E-2,5.8488388E-2,-2.0635586E-2,3.9247807E-2,-2.9029716E-2,3.987577E-2,-1.9423168E-2,-6.60739E-2,3.864799E-2,-3.3713076E-2,-6.4106844E-2,-1.5960824E-3,6.862272E-2,2.1459607E-2],"split_indices":[4,1,12,3,3,7,3,7,14,15,12,4,15,8,6,0,0,0,0,0,1,4,4,1,0,7,1,6,13,15,13,12,15,0,0,6,0,0,0,0,0,11,0,15,7,0,3,12,0,14,0,0,0,0,0,0,0,0,0,0,0,0,0,0,0,0,0,0,0],"split_type":[1,0,0,0,0,0,0,0,0,0,0,1,0,0,0,0,0,0,0,0,0,1,1,0,0,0,0,0,0,0,0,0,0,0,0,0,0,0,0,0,0,0,0,0,0,0,0,0,0,0,0,0,0,0,0,0,0,0,0,0,0,0,0,0,0,0,0,0,0],"sum_hessian":[2.3030304E2,8.350598E1,1.4679706E2,1.7339586E1,6.616639E1,4.42375E1,1.0255956E2,9.566983E0,7.772603E0,2.8881735E1,3.7284657E1,1.719274E1,2.704476E1,7.2792305E1,2.9767262E1,3.638432E0,5.9285507E0,3.3271415E0,4.4454618E0,5.459026E0,2.3422709E1,9.218257E0,2.80664E1,6.538731E0,1.0654008E1,7.5330787E0,1.951168E1,6.0320522E1,1.247178E1,1.4075424E1,1.5691836E1,1.3638335E1,9.784373E0,3.89191E0,5.3263474E0,2.4805264E1,3.2611365E0,3.2395651E0,3.299166E0,3.0931184E0,4.4399605E0,1.5338749E1,4.172932E0,1.4815812E1,4.550471E1,4.9919257E0,7.479854E0,7.798572E0,6.2768526E0,9.879679E0,5.8121576E0,1.0091702E1,3.5466332E0,5.2298093E0,4.5545635E0,7.8981767E0,1.6907087E1,1.1725322E1,3.6134262E0,6.2583294E0,8.557483E0,3.2998352E1,1.2506356E1,4.4675283E0,3.0123258E0,4.498743E0,3.299829E0,5.8418217E0,4.0378566E0],"tree_param":{"num_deleted":"0","num_feature":"16","num_nodes":"69","size_leaf_vector":"1"}},{"base_weights":[-1.6869012E-2,4.181499E-1,-2.2510293E-1,6.232932E-1,2.1053907E-1,-5.9504863E-2,-1.6888613E-1,7.390485E-1,-2.3408903E-2,-2.4100028E-1,5.707544E-1,-5.0777E-1,-2.4433792E-2,2.7569532E-1,8.9875764E-1,2.122153E-1,-6.3317764E-1,1.9524771E-1,6.0338654E-2,-9.125612E-1,-1.3103971E-1,-3.155362E-1,1.0418803E-1,4.0891763E-2,-1.2036292E-2,6.0744744E-2,6.3387096E-1,4.439628E-2,-2.3712015E-2,-4.93912E-3,-6.344212E-2,-7.728233E-2,3.4594636E-2,-6.810161E-2,-4.86074E-1,-4.2123175E-1,4.992031E-2,-8.7701666E-1,9.678148E-2,7.008627E-1,-1.0979023E-1,-0E0,4.5274466E-2,-1.9284723E-2,1.2183715E-2,-3.7099395E-3,-5.5669744E-2,1.8083E-3,-6.1065394E-2,-2.3009824E-2,-7.090383E-2,-2.183183E-2,3.3449277E-2,1.1420739E-2,6.584584E-2,3.6309313E-2,-1.3079223E-2],"categories":[0,1,2,3,5,6,7,8,10,11,13,14,15,16,18,19,20,21,22,23,25,26,27,28,29,30,31,32,34,36,37,38,40,41,42,43,44,45,46,51,52,53,55,56,57,58,59,60,61,63,64,65,66,68,69,70,71,73,74,75,76,77,79,80,0,1,2,3,4,5,6,7,8,9,10,11,13,14,15,16,17,18,19,20,21,22,23,24,25,26,27,28,29,30,31,32,34,36,37,38,40,41,42,43,44,45,46,48,49,51,52,53,55,56,57,58,59,60,61,62,63,64,65,66,67,68,69,70,71,72,73,74,75,76,77,79,80,0,1,2,3,4,5,6,7,8,9,10,11,12,13,14,15,16,17,18,19,20,21,22,23,24,25,26,27,28,29,30,31,32,33,34,35,36,37,38,39,40,41,42,43,44,45,46,47,48,49,50,0,1,2,3,4,5,6,7,8,9,10,11,12,13,14,15,16,17,18,19,20,21,22,23,24,0,1,2,3,4,5,6,7,8,9,10,11,12,13,14,15,16,17],"categories_nodes":[0,1,13,16,17],"categories_segments":[0,64,137,188,213],"categories_sizes":[64,73,51,25,18],"default_left":[0,0,0,0,0,0,0,0,0,0,0,0,0,1,0,0,1,1,0,0,0,0,0,0,0,0,0,0,0,0,0,0,0,0,0,0,0,0,0,0,0,0,0,0,0,0,0,0,0,0,0,0,0,0,0,0,0],"id":21,"left_children":[1,3,5,7,9,-1,11,13,-1,15,17,19,21,23,25,27,29,31,-1,33,35,37,39,-1,-1,-1,41,-1,-1,-1,-1,43,-1,-1,45,47,-1,49,51,53,55,-1,-1,-1,-1,-1,-1,-1,-1,-1,-1,-1,-1,-1,-1,-1,-1],"loss_changes":[2.0681715E1,2.9300623E0,8.052653E0,4.970272E0,6.424418E0,0E0,7.1499367E0,2.1040668E0,0E0,3.3121567E0,4.8325043E0,6.454665E0,3.9706085E0,3.0980418E0,1.0725517E0,4.551143E0,3.0761456E0,2.1457298E0,0E0,3.143364E0,8.222227E0,7.6965847E0,9.464319E0,0E0,0E0,0E0,2.5854864E0,0E0,0E0,0E0,0E0,1.1433277E0,0E0,0E0,2.9895859E0,7.4273634E0,0E0,2.3125582E0,6.285856E0,5.2330637E0,7.061659E0,0E0,0E0,0E0,0E0,0E0,0E0,0E0,0E0,0E0,0E0,0E0,0E0,0E0,0E0,0E0,0E0],"parents":[2147483647,0,0,1,1,2,2,3,3,4,4,6,6,7,7,9,9,10,10,11,11,12,12,13,13,14,14,15,15,16,16,17,17,19,19,20,20,21,21,22,22,26,26,31,31,34,34,35,35,37,37,38,38,39,39,40,40],"right_children":[2,4,6,8,10,-1,12,14,-1,16,18,20,22,24,26,28,30,32,-1,34,36,38,40,-1,-1,-1,42,-1,-1,-1,-1,44,-1,-1,46,48,-1,50,52,54,56,-1,-1,-1,-1,-1,-1,-1,-1,-1,-1,-1,-1,-1,-1,-1,-1],"split_conditions":[1E-45,1E-45,7.14E-2,2.98E1,3E0,-5.9504863E-2,2E0,2E0,-2.3408903E-2,3E0,1E1,2.609E-1,1.1E1,1E-45,2E0,4E0,1E-45,1E-45,6.0338654E-2,8E0,3.53E1,3E0,2E0,4.0891763E-2,-1.2036292E-2,6.0744744E-2,2E0,4.439628E-2,-2.3712015E-2,-4.93912E-3,-6.344212E-2,1.9E1,3.4594636E-2,-6.810161E-2,5E0,8E0,4.992031E-2,7E0,4E0,1E1,2E0,-0E0,4.5274466E-2,-1.9284723E-2,1.2183715E-2,-3.7099395E-3,-5.5669744E-2,1.8083E-3,-6.1065394E-2,-2.3009824E-2,-7.090383E-2,-2.183183E-2,3.3449277E-2,1.1420739E-2,6.584584E-2,3.6309313E-2,-1.3079223E-2],"split_indices":[4,4,15,11,12,0,12,5,0,3,0,15,1,4,12,2,4,4,0,0,11,3,3,0,0,0,3,0,0,0,0,1,0,0,2,0,0,1,6,0,2,0,0,0,0,0,0,0,0,0,0,0,0,0,0,0,0],"split_type":[1,1,0,0,0,0,0,0,0,0,0,0,0,1,0,0,1,1,0,0,0,0,0,0,0,0,0,0,0,0,0,0,0,0,0,0,0,0,0,0,0,0,0,0,0,0,0,0,0,0,0,0,0,0,0,0,0],"sum_hessian":[2.2648506E2,7.283599E1,1.5364906E2,3.5386337E1,3.7449654E1,7.2499995E0,1.4639906E2,3.236807E1,3.0182676E0,1.6641918E1,2.0807735E1,4.2794987E1,1.0360408E2,9.1561985E0,2.321187E1,7.8147626E0,8.827155E0,1.4003972E1,6.803763E0,1.9815628E1,2.297936E1,3.1541737E1,7.206234E1,4.276598E0,4.8796E0,8.77504E0,1.4436831E1,3.8637125E0,3.95105E0,5.508742E0,3.318413E0,9.45736E0,4.5466123E0,8.465662E0,1.1349966E1,1.8851397E1,4.127963E0,1.2980634E1,1.8561104E1,1.8544176E1,5.351817E1,4.7187314E0,9.7181E0,4.878959E0,4.578401E0,7.6228056E0,3.7271602E0,1.2522298E1,6.3290987E0,8.481811E0,4.498823E0,9.63829E0,8.922813E0,1.1363031E1,7.1811438E0,7.541585E0,4.597658E1],"tree_param":{"num_deleted":"0","num_feature":"16","num_nodes":"57","size_leaf_vector":"1"}},{"base_weights":[1.9467419E-2,-3.241514E-1,2.3711066E-1,-5.8268774E-2,-6.344181E-1,1.5084955E-2,5.24883E-1,-3.7725127E-1,3.6025465E-1,-9.3795663E-1,-2.9810083E-1,-4.1843933E-1,2.1803176E-1,6.301408E-1,-1.2773575E-1,1.70689E-1,-8.38896E-1,-3.1988114E-1,6.6525507E-1,-6.624997E-2,-1.7878154E-1,-4.4968363E-2,-2.306943E-2,2.4522163E-1,-7.315889E-1,3.441333E-1,-5.284663E-1,-2.8691536E-2,7.3689944E-1,-4.933628E-2,3.0013079E-2,-2.4491774E-2,4.5519283E-1,-3.773328E-1,-6.23178E-2,3.225473E-3,-3.224078E-2,2.9578796E-1,5.865326E-2,-3.310741E-2,1.2379641E-2,-3.048741E-1,2.3930958E-2,-1.142219E-2,3.1759705E-2,-1.044324E0,2.233748E-2,5.4633397E-1,-2.230257E-1,-5.1748183E-2,7.863326E-3,7.9495335E-1,6.255574E-3,-0E0,4.780474E-2,9.509167E-3,-3.8352866E-2,3.3924855E-2,-1.1397267E-2,-2.800822E-2,1.0092838E-2,-6.898934E-2,4.7697974E-3,1.674208E-2,4.4253487E-2,-7.1579926E-2,1.5397194E-2,5.7059694E-2,2.879107E-2],"categories":[0,1,2,3,4,5,6,7,8,9,10,11,12,13,14,15,16,17,18,19,20,21,22,23,24,25,26,27,28,29,30,31,32,33,34,35,36,37,38,39,40,41,42,43,44,0,1,2,3,4,5,6,7,8,9,10,11,12,13,14,15,16,17,18,19,20,21,22,23,24,25,26,27,28,29,30,31,32,0,1,0,1,2,3,4,5,6,7,8,9,10,11,12,50,0,1,2,3,4,5,6,7,8,9,10,11,12,13,14,15,16,17,18,19,20,21,22,23,24,25,26,27,28,29,30,31,32,33,34,35,36,37,38,39],"categories_nodes":[15,22,24,25,26],"categories_segments":[0,45,78,80,94],"categories_sizes":[45,33,2,14,40],"default_left":[0,0,0,0,0,0,0,0,0,0,0,0,0,0,0,1,0,0,0,0,0,0,1,0,1,1,1,0,0,0,0,0,0,0,0,0,0,0,0,0,0,0,0,0,0,0,0,0,0,0,0,0,0,0,0,0,0,0,0,0,0,0,0,0,0,0,0,0,0],"id":22,"left_children":[1,3,5,7,9,11,13,15,17,19,21,23,25,27,29,31,33,35,37,-1,39,-1,41,43,45,47,49,-1,51,-1,-1,-1,53,55,-1,-1,-1,57,-1,-1,-1,59,-1,-1,-1,61,-1,63,65,-1,-1,67,-1,-1,-1,-1,-1,-1,-1,-1,-1,-1,-1,-1,-1,-1,-1,-1,-1],"loss_changes":[1.677993E1,7.062253E0,8.727428E0,6.555036E0,3.662487E0,7.011079E0,4.230728E0,7.268203E0,4.63825E0,5.580843E0,3.2795663E0,5.493649E0,5.2976594E0,7.0839577E0,6.252113E0,2.7547393E0,2.2658882E0,9.898175E-1,2.3278956E0,0E0,1.8751177E0,0E0,2.279881E0,1.805584E0,7.0001116E0,5.5876813E0,3.0852678E0,0E0,1.5133381E0,0E0,0E0,0E0,2.3587942E0,2.1445136E0,0E0,0E0,0E0,2.2355454E0,0E0,0E0,0E0,1.5049222E0,0E0,0E0,0E0,5.7081985E0,0E0,2.1139393E0,8.916262E0,0E0,0E0,2.4719257E0,0E0,0E0,0E0,0E0,0E0,0E0,0E0,0E0,0E0,0E0,0E0,0E0,0E0,0E0,0E0,0E0,0E0],"parents":[2147483647,0,0,1,1,2,2,3,3,4,4,5,5,6,6,7,7,8,8,9,9,10,10,11,11,12,12,13,13,14,14,15,15,16,16,17,17,18,18,20,20,22,22,23,23,24,24,25,25,26,26,28,28,32,32,33,33,37,37,41,41,45,45,47,47,48,48,51,51],"right_children":[2,4,6,8,10,12,14,16,18,20,22,24,26,28,30,32,34,36,38,-1,40,-1,42,44,46,48,50,-1,52,-1,-1,-1,54,56,-1,-1,-1,58,-1,-1,-1,60,-1,-1,-1,62,-1,64,66,-1,-1,68,-1,-1,-1,-1,-1,-1,-1,-1,-1,-1,-1,-1,-1,-1,-1,-1,-1],"split_conditions":[2.308E-1,7E0,3.79E1,4E0,4E0,3.077E-1,7.03E1,4E0,4E0,2E-1,9E0,3E0,2.1E1,2E0,7E0,1E-45,1.12E1,3E0,5.86E1,-6.624997E-2,2E0,-4.4968363E-2,1E-45,1.45E1,1E-45,1E-45,1E-45,-2.8691536E-2,9.33E1,-4.933628E-2,3.0013079E-2,-2.4491774E-2,2E-1,1.579E-1,-6.23178E-2,3.225473E-3,-3.224078E-2,2E0,5.865326E-2,-3.310741E-2,1.2379641E-2,5.72E1,2.3930958E-2,-1.142219E-2,3.1759705E-2,7.4E1,2.233748E-2,6E0,6E0,-5.1748183E-2,7.863326E-3,2E0,6.255574E-3,-0E0,4.780474E-2,9.509167E-3,-3.8352866E-2,3.3924855E-2,-1.1397267E-2,-2.800822E-2,1.0092838E-2,-6.898934E-2,4.7697974E-3,1.674208E-2,4.4253487E-2,-7.1579926E-2,1.5397194E-2,5.7059694E-2,2.879107E-2],"split_indices":[15,0,10,12,6,15,9,2,2,15,0,6,10,2,8,4,10,6,9,0,12,0,4,10,4,4,4,0,10,0,0,0,15,15,0,0,0,5,0,0,0,9,0,0,0,9,0,2,0,0,0,6,0,0,0,0,0,0,0,0,0,0,0,0,0,0,0,0,0],"split_type":[0,0,0,0,0,0,0,0,0,0,0,0,0,0,0,1,0,0,0,0,0,0,1,0,1,1,1,0,0,0,0,0,0,0,0,0,0,0,0,0,0,0,0,0,0,0,0,0,0,0,0,0,0,0,0,0,0,0,0,0,0,0,0,0,0,0,0,0,0],"sum_hessian":[2.2246031E2,8.589655E1,1.3656377E2,4.7070045E1,3.8826508E1,7.787815E1,5.868561E1,2.6903091E1,2.0166956E1,1.9311201E1,1.9515305E1,2.4336739E1,5.3541412E1,5.0696655E1,7.9889536E0,1.2490901E1,1.441219E1,6.127122E0,1.4039833E1,1.2209511E1,7.1016903E0,5.2984114E0,1.4216894E1,7.769129E0,1.656761E1,4.6379723E1,7.1616907E0,3.6965919E0,4.7000065E1,3.5647476E0,4.424206E0,3.4373336E0,9.053567E0,7.775608E0,6.6365824E0,3.0329368E0,3.094185E0,9.156931E0,4.882902E0,3.1791518E0,3.9225385E0,9.482236E0,4.734658E0,3.579365E0,4.189764E0,1.3249691E1,3.3179178E0,3.4347393E1,1.2032327E1,3.9101305E0,3.25156E0,4.2503925E1,4.49614E0,5.1943455E0,3.8592217E0,3.2696965E0,4.505912E0,5.230366E0,3.9265652E0,6.3666315E0,3.1156046E0,1.0141707E1,3.1079834E0,2.2551134E1,1.1796261E1,3.2124374E0,8.81989E0,1.4666269E1,2.7837656E1],"tree_param":{"num_deleted":"0","num_feature":"16",